0.6032 -0.5163 0.2319 0.1438 0.0777 0.7060 -0.4795 -0.4053 -0.7639 
0.6057 -0.5158 0.2304 0.1433 0.0770 0.7064 -0.4807 -0.4044 -0.7649 
0.6058 -0.5158 0.2304 0.1433 0.0770 0.7064 -0.4807 -0.4044 -0.7649 
0.6055 -0.5158 0.2305 0.1434 0.0770 0.7064 -0.4806 -0.4045 -0.7648 
0.6052 -0.5159 0.2306 0.1434 0.0771 0.7063 -0.4805 -0.4046 -0.7647 
0.6051 -0.5159 0.2307 0.1434 0.0772 0.7063 -0.4804 -0.4047 -0.7646 
0.6049 -0.5159 0.2308 0.1435 0.0772 0.7063 -0.4803 -0.4047 -0.7646 
0.6047 -0.5160 0.2309 0.1435 0.0773 0.7062 -0.4803 -0.4048 -0.7645 
0.6046 -0.5160 0.2310 0.1435 0.0773 0.7062 -0.4802 -0.4049 -0.7644 
0.6044 -0.5161 0.2311 0.1436 0.0774 0.7062 -0.4801 -0.4049 -0.7643 
0.6040 -0.5162 0.2314 0.1436 0.0775 0.7061 -0.4799 -0.4051 -0.7642 
0.6037 -0.5162 0.2315 0.1437 0.0776 0.7060 -0.4798 -0.4052 -0.7640 
0.6033 -0.5163 0.2318 0.1438 0.0778 0.7059 -0.4795 -0.4054 -0.7638 
0.6030 -0.5164 0.2320 0.1438 0.0779 0.7059 -0.4794 -0.4055 -0.7637 
0.6027 -0.5164 0.2321 0.1439 0.0780 0.7058 -0.4792 -0.4056 -0.7635 
0.6024 -0.5165 0.2323 0.1440 0.0781 0.7058 -0.4791 -0.4057 -0.7634 
0.6021 -0.5166 0.2325 0.1440 0.0782 0.7057 -0.4789 -0.4059 -0.7632 
0.6017 -0.5167 0.2327 0.1441 0.0783 0.7056 -0.4787 -0.4060 -0.7630 
0.6014 -0.5168 0.2329 0.1442 0.0785 0.7056 -0.4785 -0.4062 -0.7628 
0.6006 -0.5169 0.2334 0.1444 0.0788 0.7054 -0.4781 -0.4065 -0.7624 
0.6001 -0.5170 0.2337 0.1445 0.0790 0.7053 -0.4778 -0.4067 -0.7622 
0.5997 -0.5171 0.2340 0.1446 0.0792 0.7052 -0.4776 -0.4069 -0.7619 
0.5992 -0.5173 0.2343 0.1447 0.0794 0.7051 -0.4773 -0.4071 -0.7616 
0.5982 -0.5175 0.2350 0.1450 0.0798 0.7049 -0.4767 -0.4075 -0.7610 
0.5976 -0.5176 0.2354 0.1451 0.0801 0.7048 -0.4763 -0.4078 -0.7606 
0.5970 -0.5178 0.2358 0.1453 0.0804 0.7047 -0.4760 -0.4081 -0.7602 
0.5958 -0.5180 0.2366 0.1457 0.0810 0.7045 -0.4752 -0.4086 -0.7593 
0.5950 -0.5182 0.2372 0.1459 0.0814 0.7043 -0.4747 -0.4089 -0.7588 
0.5943 -0.5184 0.2377 0.1462 0.0818 0.7042 -0.4742 -0.4093 -0.7583 
0.5936 -0.5186 0.2383 0.1464 0.0822 0.7041 -0.4737 -0.4096 -0.7577 
0.5928 -0.5187 0.2389 0.1467 0.0827 0.7039 -0.4731 -0.4100 -0.7571 
0.5913 -0.5191 0.2401 0.1473 0.0836 0.7037 -0.4720 -0.4107 -0.7558 
0.5904 -0.5193 0.2408 0.1477 0.0842 0.7035 -0.4713 -0.4111 -0.7550 
0.5895 -0.5195 0.2416 0.1481 0.0848 0.7034 -0.4706 -0.4116 -0.7542 
0.5886 -0.5197 0.2424 0.1485 0.0855 0.7033 -0.4699 -0.4120 -0.7533 
0.5869 -0.5201 0.2439 0.1493 0.0867 0.7030 -0.4684 -0.4129 -0.7516 
0.5849 -0.5205 0.2457 0.1503 0.0883 0.7028 -0.4667 -0.4139 -0.7496 
0.5838 -0.5208 0.2469 0.1509 0.0892 0.7027 -0.4656 -0.4145 -0.7483 
0.5828 -0.5210 0.2479 0.1515 0.0901 0.7026 -0.4646 -0.4150 -0.7471 
0.5818 -0.5212 0.2490 0.1522 0.0911 0.7025 -0.4636 -0.4156 -0.7459 
0.5808 -0.5215 0.2501 0.1528 0.0921 0.7024 -0.4625 -0.4161 -0.7446 
0.5798 -0.5217 0.2513 0.1536 0.0931 0.7023 -0.4614 -0.4167 -0.7432 
0.5788 -0.5219 0.2525 0.1543 0.0942 0.7023 -0.4602 -0.4172 -0.7418 
0.5769 -0.5223 0.2548 0.1557 0.0963 0.7022 -0.4580 -0.4183 -0.7391 
0.5758 -0.5225 0.2563 0.1567 0.0976 0.7022 -0.4565 -0.4190 -0.7373 
0.5740 -0.5229 0.2588 0.1583 0.0999 0.7023 -0.4541 -0.4201 -0.7343 
0.5729 -0.5231 0.2603 0.1594 0.1014 0.7023 -0.4525 -0.4207 -0.7324 
0.5720 -0.5233 0.2618 0.1604 0.1028 0.7024 -0.4511 -0.4213 -0.7307 
0.5712 -0.5234 0.2632 0.1614 0.1042 0.7025 -0.4497 -0.4219 -0.7289 
0.5703 -0.5236 0.2646 0.1623 0.1055 0.7026 -0.4483 -0.4224 -0.7272 
0.5695 -0.5237 0.2660 0.1633 0.1069 0.7027 -0.4469 -0.4229 -0.7254 
0.5688 -0.5238 0.2675 0.1644 0.1083 0.7029 -0.4455 -0.4235 -0.7237 
0.5669 -0.5242 0.2711 0.1670 0.1119 0.7032 -0.4419 -0.4248 -0.7191 
0.5661 -0.5243 0.2728 0.1682 0.1137 0.7035 -0.4402 -0.4254 -0.7170 
0.5655 -0.5244 0.2741 0.1692 0.1150 0.7037 -0.4389 -0.4258 -0.7153 
0.5650 -0.5244 0.2753 0.1701 0.1163 0.7039 -0.4377 -0.4262 -0.7138 
0.5646 -0.5245 0.2764 0.1709 0.1174 0.7040 -0.4365 -0.4266 -0.7123 
0.5641 -0.5245 0.2775 0.1717 0.1185 0.7042 -0.4355 -0.4269 -0.7110 
0.5635 -0.5246 0.2791 0.1730 0.1203 0.7045 -0.4339 -0.4274 -0.7089 
0.5632 -0.5246 0.2800 0.1737 0.1212 0.7047 -0.4330 -0.4277 -0.7077 
0.5630 -0.5247 0.2807 0.1742 0.1219 0.7048 -0.4323 -0.4279 -0.7068 
0.5627 -0.5247 0.2815 0.1748 0.1228 0.7049 -0.4315 -0.4281 -0.7058 
0.5626 -0.5247 0.2818 0.1750 0.1231 0.7050 -0.4312 -0.4282 -0.7054 
0.5626 -0.5247 0.2818 0.1751 0.1232 0.7050 -0.4311 -0.4283 -0.7053 
0.5626 -0.5247 0.2818 0.1750 0.1231 0.7050 -0.4312 -0.4282 -0.7054 
0.5627 -0.5247 0.2815 0.1748 0.1229 0.7050 -0.4314 -0.4282 -0.7057 
0.5630 -0.5247 0.2806 0.1741 0.1218 0.7048 -0.4323 -0.4279 -0.7069 
0.5633 -0.5246 0.2798 0.1735 0.1209 0.7046 -0.4332 -0.4276 -0.7080 
0.5636 -0.5246 0.2789 0.1727 0.1198 0.7045 -0.4341 -0.4273 -0.7093 
0.5640 -0.5246 0.2778 0.1719 0.1185 0.7043 -0.4352 -0.4270 -0.7108 
0.5644 -0.5245 0.2765 0.1709 0.1170 0.7040 -0.4365 -0.4265 -0.7125 
0.5655 -0.5244 0.2739 0.1688 0.1137 0.7036 -0.4392 -0.4256 -0.7162 
0.5663 -0.5242 0.2719 0.1672 0.1113 0.7033 -0.4411 -0.4249 -0.7190 
0.5671 -0.5241 0.2700 0.1657 0.1089 0.7031 -0.4431 -0.4241 -0.7217 
0.5688 -0.5238 0.2664 0.1629 0.1043 0.7027 -0.4467 -0.4226 -0.7268 
0.5701 -0.5235 0.2638 0.1609 0.1010 0.7024 -0.4493 -0.4215 -0.7305 
0.5714 -0.5232 0.2615 0.1591 0.0979 0.7023 -0.4517 -0.4204 -0.7339 
0.5728 -0.5229 0.2591 0.1572 0.0948 0.7022 -0.4541 -0.4193 -0.7373 
0.5744 -0.5225 0.2568 0.1554 0.0916 0.7022 -0.4565 -0.4180 -0.7408 
0.5772 -0.5218 0.2526 0.1523 0.0860 0.7023 -0.4608 -0.4157 -0.7470 
0.5795 -0.5212 0.2497 0.1501 0.0820 0.7026 -0.4638 -0.4139 -0.7513 
0.5816 -0.5206 0.2472 0.1483 0.0785 0.7029 -0.4664 -0.4122 -0.7552 
0.5853 -0.5194 0.2432 0.1454 0.0727 0.7036 -0.4706 -0.4093 -0.7614 
0.5882 -0.5185 0.2405 0.1435 0.0688 0.7042 -0.4735 -0.4071 -0.7657 
0.5925 -0.5171 0.2368 0.1409 0.0633 0.7054 -0.4774 -0.4037 -0.7717 
0.5957 -0.5160 0.2344 0.1393 0.0596 0.7064 -0.4801 -0.4013 -0.7757 
0.5985 -0.5149 0.2325 0.1381 0.0566 0.7074 -0.4822 -0.3991 -0.7791 
0.6013 -0.5139 0.2308 0.1370 0.0538 0.7084 -0.4841 -0.3970 -0.7821 
0.6040 -0.5129 0.2293 0.1360 0.0513 0.7095 -0.4859 -0.3950 -0.7849 
0.6084 -0.5113 0.2270 0.1347 0.0474 0.7113 -0.4886 -0.3917 -0.7892 
0.6115 -0.5100 0.2255 0.1339 0.0448 0.7126 -0.4904 -0.3893 -0.7921 
0.6142 -0.5090 0.2244 0.1333 0.0427 0.7138 -0.4918 -0.3872 -0.7944 
0.6166 -0.5080 0.2234 0.1328 0.0410 0.7149 -0.4930 -0.3854 -0.7964 
0.6189 -0.5071 0.2226 0.1324 0.0394 0.7160 -0.4941 -0.3837 -0.7982 
0.6221 -0.5057 0.2215 0.1319 0.0373 0.7175 -0.4955 -0.3813 -0.8006 
0.6242 -0.5048 0.2208 0.1316 0.0359 0.7185 -0.4964 -0.3796 -0.8021 
0.6258 -0.5041 0.2204 0.1315 0.0349 0.7193 -0.4970 -0.3784 -0.8032 
0.6271 -0.5036 0.2200 0.1313 0.0342 0.7199 -0.4975 -0.3774 -0.8040 
0.6284 -0.5030 0.2197 0.1312 0.0334 0.7206 -0.4980 -0.3764 -0.8049 
0.6291 -0.5027 0.2195 0.1312 0.0331 0.7209 -0.4983 -0.3759 -0.8053 
0.6291 -0.5027 0.2195 0.1311 0.0330 0.7210 -0.4983 -0.3758 -0.8054 
0.6288 -0.5028 0.2196 0.1312 0.0332 0.7208 -0.4982 -0.3761 -0.8052 
0.6282 -0.5031 0.2197 0.1312 0.0335 0.7205 -0.4980 -0.3765 -0.8048 
0.6273 -0.5035 0.2199 0.1313 0.0340 0.7201 -0.4977 -0.3772 -0.8043 
0.6262 -0.5040 0.2202 0.1314 0.0347 0.7196 -0.4972 -0.3781 -0.8036 
0.6249 -0.5046 0.2206 0.1315 0.0354 0.7189 -0.4967 -0.3792 -0.8028 
0.6221 -0.5058 0.2214 0.1318 0.0371 0.7176 -0.4957 -0.3814 -0.8011 
0.6198 -0.5068 0.2221 0.1321 0.0385 0.7166 -0.4947 -0.3832 -0.7998 
0.6177 -0.5077 0.2229 0.1324 0.0400 0.7156 -0.4938 -0.3849 -0.7984 
0.6154 -0.5087 0.2237 0.1328 0.0415 0.7147 -0.4929 -0.3867 -0.7970 
0.6115 -0.5104 0.2252 0.1335 0.0443 0.7131 -0.4911 -0.3899 -0.7945 
0.6085 -0.5117 0.2265 0.1342 0.0465 0.7119 -0.4896 -0.3922 -0.7925 
0.6059 -0.5127 0.2277 0.1348 0.0486 0.7109 -0.4883 -0.3944 -0.7907 
0.6016 -0.5145 0.2299 0.1361 0.0521 0.7095 -0.4860 -0.3978 -0.7878 
0.5986 -0.5157 0.2317 0.1371 0.0549 0.7085 -0.4842 -0.4003 -0.7856 
0.5959 -0.5167 0.2334 0.1381 0.0574 0.7078 -0.4825 -0.4024 -0.7836 
0.5935 -0.5176 0.2351 0.1391 0.0599 0.7071 -0.4809 -0.4043 -0.7818 
0.5912 -0.5184 0.2369 0.1402 0.0624 0.7066 -0.4793 -0.4062 -0.7799 
0.5875 -0.5197 0.2399 0.1421 0.0665 0.7058 -0.4766 -0.4092 -0.7769 
0.5850 -0.5205 0.2422 0.1436 0.0696 0.7054 -0.4745 -0.4112 -0.7747 
0.5829 -0.5212 0.2443 0.1450 0.0724 0.7052 -0.4727 -0.4129 -0.7728 
0.5799 -0.5221 0.2477 0.1472 0.0766 0.7049 -0.4700 -0.4154 -0.7700 
0.5779 -0.5226 0.2501 0.1488 0.0796 0.7049 -0.4680 -0.4170 -0.7681 
0.5763 -0.5230 0.2523 0.1503 0.0822 0.7049 -0.4662 -0.4183 -0.7664 
0.5749 -0.5233 0.2543 0.1516 0.0846 0.7050 -0.4646 -0.4194 -0.7649 
0.5736 -0.5236 0.2563 0.1530 0.0869 0.7051 -0.4631 -0.4204 -0.7635 
0.5725 -0.5238 0.2582 0.1543 0.0891 0.7053 -0.4617 -0.4213 -0.7622 
0.5708 -0.5240 0.2611 0.1563 0.0924 0.7056 -0.4594 -0.4227 -0.7602 
0.5698 -0.5241 0.2632 0.1577 0.0947 0.7059 -0.4579 -0.4235 -0.7589 
0.5689 -0.5242 0.2649 0.1589 0.0966 0.7062 -0.4566 -0.4242 -0.7578 
0.5679 -0.5243 0.2673 0.1606 0.0992 0.7066 -0.4549 -0.4250 -0.7564 
0.5672 -0.5243 0.2689 0.1617 0.1009 0.7069 -0.4537 -0.4256 -0.7555 
0.5667 -0.5243 0.2702 0.1626 0.1022 0.7071 -0.4528 -0.4259 -0.7548 
0.5663 -0.5243 0.2712 0.1634 0.1033 0.7073 -0.4521 -0.4263 -0.7542 
0.5660 -0.5242 0.2721 0.1640 0.1043 0.7075 -0.4514 -0.4265 -0.7537 
0.5655 -0.5242 0.2734 0.1649 0.1056 0.7078 -0.4506 -0.4269 -0.7531 
0.5653 -0.5242 0.2741 0.1654 0.1063 0.7079 -0.4501 -0.4271 -0.7527 
0.5650 -0.5241 0.2748 0.1659 0.1070 0.7081 -0.4496 -0.4272 -0.7524 
0.5649 -0.5241 0.2752 0.1662 0.1074 0.7081 -0.4493 -0.4273 -0.7522 
0.5649 -0.5241 0.2754 0.1663 0.1076 0.7082 -0.4492 -0.4274 -0.7521 
0.5648 -0.5241 0.2754 0.1663 0.1076 0.7082 -0.4492 -0.4274 -0.7521 
0.5649 -0.5241 0.2753 0.1662 0.1075 0.7082 -0.4493 -0.4273 -0.7521 
0.5649 -0.5241 0.2751 0.1661 0.1073 0.7081 -0.4494 -0.4273 -0.7522 
0.5650 -0.5241 0.2749 0.1659 0.1071 0.7081 -0.4496 -0.4272 -0.7523 
0.5651 -0.5242 0.2745 0.1657 0.1068 0.7080 -0.4498 -0.4272 -0.7525 
0.5653 -0.5242 0.2739 0.1652 0.1061 0.7079 -0.4502 -0.4270 -0.7527 
0.5655 -0.5242 0.2733 0.1649 0.1056 0.7078 -0.4506 -0.4269 -0.7529 
0.5657 -0.5242 0.2728 0.1645 0.1052 0.7077 -0.4509 -0.4267 -0.7531 
0.5659 -0.5243 0.2723 0.1641 0.1047 0.7076 -0.4512 -0.4266 -0.7534 
0.5661 -0.5243 0.2717 0.1637 0.1042 0.7075 -0.4516 -0.4264 -0.7536 
0.5664 -0.5243 0.2707 0.1631 0.1033 0.7073 -0.4522 -0.4262 -0.7539 
0.5667 -0.5243 0.2700 0.1626 0.1026 0.7072 -0.4527 -0.4260 -0.7542 
0.5669 -0.5243 0.2694 0.1621 0.1021 0.7071 -0.4531 -0.4258 -0.7544 
0.5672 -0.5243 0.2688 0.1617 0.1015 0.7070 -0.4535 -0.4256 -0.7546 
0.5674 -0.5243 0.2682 0.1613 0.1010 0.7069 -0.4538 -0.4254 -0.7548 
0.5678 -0.5243 0.2672 0.1606 0.1001 0.7068 -0.4545 -0.4251 -0.7552 
0.5681 -0.5243 0.2665 0.1601 0.0995 0.7067 -0.4549 -0.4249 -0.7554 
0.5683 -0.5243 0.2659 0.1598 0.0990 0.7066 -0.4553 -0.4247 -0.7556 
0.5687 -0.5243 0.2650 0.1591 0.0982 0.7065 -0.4558 -0.4243 -0.7559 
0.5690 -0.5242 0.2644 0.1587 0.0977 0.7064 -0.4562 -0.4241 -0.7561 
0.5692 -0.5242 0.2638 0.1584 0.0973 0.7064 -0.4565 -0.4239 -0.7562 
0.5694 -0.5242 0.2634 0.1580 0.0969 0.7063 -0.4568 -0.4238 -0.7564 
0.5698 -0.5242 0.2626 0.1575 0.0963 0.7062 -0.4572 -0.4235 -0.7566 
0.5700 -0.5241 0.2621 0.1572 0.0959 0.7062 -0.4575 -0.4233 -0.7567 
0.5702 -0.5241 0.2617 0.1569 0.0956 0.7062 -0.4578 -0.4231 -0.7568 
0.5704 -0.5241 0.2614 0.1567 0.0953 0.7061 -0.4580 -0.4230 -0.7569 
0.5707 -0.5241 0.2608 0.1563 0.0948 0.7061 -0.4583 -0.4228 -0.7571 
0.5709 -0.5240 0.2604 0.1561 0.0946 0.7061 -0.4585 -0.4226 -0.7572 
0.5710 -0.5240 0.2602 0.1559 0.0944 0.7060 -0.4587 -0.4225 -0.7573 
0.5711 -0.5240 0.2599 0.1558 0.0942 0.7060 -0.4588 -0.4224 -0.7573 
0.5713 -0.5240 0.2597 0.1556 0.0940 0.7060 -0.4590 -0.4223 -0.7574 
0.5714 -0.5239 0.2593 0.1554 0.0937 0.7060 -0.4592 -0.4222 -0.7575 
0.5716 -0.5239 0.2591 0.1552 0.0936 0.7060 -0.4593 -0.4221 -0.7575 
0.5716 -0.5239 0.2589 0.1551 0.0935 0.7060 -0.4594 -0.4220 -0.7576 
0.5718 -0.5239 0.2587 0.1550 0.0933 0.7059 -0.4595 -0.4219 -0.7576 
0.5718 -0.5239 0.2586 0.1549 0.0932 0.7059 -0.4596 -0.4219 -0.7576 
0.5719 -0.5239 0.2585 0.1548 0.0932 0.7059 -0.4596 -0.4218 -0.7577 
0.5719 -0.5238 0.2584 0.1548 0.0931 0.7059 -0.4597 -0.4218 -0.7577 
0.5720 -0.5238 0.2583 0.1547 0.0931 0.7059 -0.4597 -0.4218 -0.7577 
0.5720 -0.5238 0.2582 0.1547 0.0930 0.7059 -0.4597 -0.4217 -0.7577 
0.5720 -0.5238 0.2582 0.1547 0.0930 0.7059 -0.4598 -0.4217 -0.7577 
0.5721 -0.5238 0.2581 0.1546 0.0930 0.7059 -0.4598 -0.4217 -0.7577 
0.5721 -0.5238 0.2581 0.1546 0.0929 0.7059 -0.4598 -0.4217 -0.7577 
0.5721 -0.5238 0.2581 0.1546 0.0929 0.7059 -0.4598 -0.4217 -0.7577 
0.5721 -0.5238 0.2581 0.1546 0.0929 0.7059 -0.4598 -0.4217 -0.7577 
0.5721 -0.5238 0.2582 0.1546 0.0930 0.7059 -0.4598 -0.4217 -0.7577 
0.5720 -0.5238 0.2582 0.1547 0.0930 0.7059 -0.4598 -0.4217 -0.7577 
0.5720 -0.5238 0.2582 0.1547 0.0930 0.7059 -0.4598 -0.4217 -0.7577 
0.5720 -0.5238 0.2582 0.1547 0.0930 0.7059 -0.4597 -0.4217 -0.7577 
0.5720 -0.5238 0.2583 0.1547 0.0930 0.7059 -0.4597 -0.4217 -0.7577 
0.5719 -0.5238 0.2584 0.1548 0.0931 0.7059 -0.4597 -0.4218 -0.7577 
0.5719 -0.5238 0.2584 0.1548 0.0931 0.7059 -0.4597 -0.4218 -0.7577 
0.5719 -0.5239 0.2585 0.1548 0.0931 0.7059 -0.4596 -0.4218 -0.7577 
0.5909 -0.5218 0.2270 0.1391 0.0791 0.7024 -0.4839 -0.4144 -0.7735 
0.5915 -0.5217 0.2266 0.1390 0.0789 0.7024 -0.4843 -0.4142 -0.7738 
0.5915 -0.5217 0.2266 0.1390 0.0789 0.7024 -0.4843 -0.4142 -0.7738 
0.5913 -0.5217 0.2267 0.1390 0.0789 0.7024 -0.4842 -0.4142 -0.7737 
0.5911 -0.5218 0.2268 0.1390 0.0790 0.7024 -0.4841 -0.4143 -0.7736 
0.5910 -0.5218 0.2269 0.1391 0.0791 0.7024 -0.4840 -0.4143 -0.7736 
0.5909 -0.5218 0.2270 0.1391 0.0791 0.7024 -0.4839 -0.4144 -0.7735 
0.5908 -0.5218 0.2271 0.1391 0.0791 0.7024 -0.4839 -0.4144 -0.7735 
0.5906 -0.5218 0.2272 0.1392 0.0792 0.7024 -0.4838 -0.4145 -0.7734 
0.5905 -0.5219 0.2273 0.1392 0.0793 0.7024 -0.4837 -0.4145 -0.7733 
0.5902 -0.5219 0.2275 0.1392 0.0794 0.7024 -0.4836 -0.4146 -0.7732 
0.5900 -0.5220 0.2277 0.1393 0.0794 0.7024 -0.4835 -0.4147 -0.7731 
0.5896 -0.5220 0.2279 0.1394 0.0796 0.7024 -0.4833 -0.4149 -0.7729 
0.5894 -0.5221 0.2281 0.1394 0.0797 0.7024 -0.4831 -0.4150 -0.7728 
0.5891 -0.5221 0.2283 0.1395 0.0798 0.7024 -0.4830 -0.4151 -0.7727 
0.5889 -0.5222 0.2285 0.1395 0.0799 0.7024 -0.4829 -0.4151 -0.7726 
0.5886 -0.5222 0.2287 0.1396 0.0800 0.7023 -0.4827 -0.4153 -0.7724 
0.5883 -0.5223 0.2289 0.1397 0.0801 0.7023 -0.4826 -0.4154 -0.7723 
0.5880 -0.5223 0.2291 0.1398 0.0803 0.7023 -0.4824 -0.4155 -0.7721 
0.5874 -0.5224 0.2296 0.1399 0.0806 0.7023 -0.4820 -0.4157 -0.7717 
0.5870 -0.5225 0.2300 0.1400 0.0808 0.7023 -0.4818 -0.4159 -0.7715 
0.5866 -0.5226 0.2303 0.1401 0.0810 0.7023 -0.4816 -0.4161 -0.7712 
0.5862 -0.5226 0.2306 0.1402 0.0812 0.7023 -0.4813 -0.4162 -0.7710 
0.5854 -0.5228 0.2313 0.1405 0.0816 0.7023 -0.4808 -0.4166 -0.7705 
0.5849 -0.5229 0.2317 0.1407 0.0819 0.7024 -0.4805 -0.4168 -0.7701 
0.5844 -0.5230 0.2322 0.1408 0.0822 0.7024 -0.4801 -0.4170 -0.7697 
0.5834 -0.5231 0.2331 0.1412 0.0828 0.7024 -0.4794 -0.4174 -0.7690 
0.5827 -0.5232 0.2336 0.1414 0.0832 0.7024 -0.4790 -0.4177 -0.7685 
0.5821 -0.5233 0.2342 0.1417 0.0836 0.7024 -0.4785 -0.4180 -0.7680 
0.5815 -0.5234 0.2348 0.1419 0.0840 0.7025 -0.4781 -0.4183 -0.7675 
0.5808 -0.5236 0.2354 0.1422 0.0844 0.7025 -0.4776 -0.4186 -0.7670 
0.5796 -0.5238 0.2367 0.1427 0.0853 0.7026 -0.4766 -0.4191 -0.7658 
0.5788 -0.5239 0.2375 0.1431 0.0860 0.7027 -0.4759 -0.4195 -0.7651 
0.5780 -0.5240 0.2384 0.1435 0.0866 0.7027 -0.4753 -0.4199 -0.7643 
0.5772 -0.5241 0.2392 0.1439 0.0872 0.7028 -0.4746 -0.4202 -0.7636 
0.5758 -0.5244 0.2408 0.1447 0.0884 0.7030 -0.4733 -0.4209 -0.7620 
0.5742 -0.5246 0.2427 0.1456 0.0899 0.7032 -0.4718 -0.4217 -0.7602 
0.5732 -0.5247 0.2439 0.1463 0.0909 0.7034 -0.4708 -0.4222 -0.7590 
0.5724 -0.5249 0.2451 0.1469 0.0918 0.7036 -0.4698 -0.4226 -0.7579 
0.5716 -0.5250 0.2462 0.1475 0.0927 0.7038 -0.4689 -0.4230 -0.7568 
0.5707 -0.5251 0.2474 0.1482 0.0937 0.7040 -0.4679 -0.4234 -0.7556 
0.5699 -0.5252 0.2486 0.1489 0.0947 0.7042 -0.4669 -0.4239 -0.7544 
0.5691 -0.5253 0.2499 0.1496 0.0958 0.7044 -0.4658 -0.4243 -0.7531 
0.5676 -0.5254 0.2523 0.1510 0.0978 0.7049 -0.4638 -0.4251 -0.7506 
0.5667 -0.5255 0.2539 0.1520 0.0992 0.7053 -0.4624 -0.4256 -0.7490 
0.5653 -0.5257 0.2564 0.1535 0.1015 0.7059 -0.4602 -0.4264 -0.7462 
0.5644 -0.5257 0.2581 0.1546 0.1029 0.7063 -0.4588 -0.4269 -0.7445 
0.5637 -0.5258 0.2596 0.1556 0.1043 0.7067 -0.4575 -0.4274 -0.7429 
0.5631 -0.5258 0.2611 0.1565 0.1056 0.7071 -0.4562 -0.4278 -0.7413 
0.5624 -0.5258 0.2626 0.1575 0.1070 0.7075 -0.4550 -0.4282 -0.7397 
0.5618 -0.5258 0.2640 0.1584 0.1083 0.7079 -0.4537 -0.4286 -0.7381 
0.5613 -0.5258 0.2655 0.1594 0.1097 0.7084 -0.4524 -0.4289 -0.7365 
0.5599 -0.5258 0.2691 0.1619 0.1131 0.7095 -0.4492 -0.4298 -0.7324 
0.5594 -0.5258 0.2709 0.1631 0.1148 0.7100 -0.4477 -0.4303 -0.7304 
0.5589 -0.5258 0.2723 0.1641 0.1161 0.7105 -0.4465 -0.4306 -0.7289 
0.5586 -0.5257 0.2735 0.1649 0.1173 0.7109 -0.4454 -0.4308 -0.7275 
0.5583 -0.5257 0.2746 0.1657 0.1184 0.7113 -0.4444 -0.4311 -0.7263 
0.5580 -0.5257 0.2756 0.1664 0.1194 0.7117 -0.4435 -0.4313 -0.7251 
0.5576 -0.5256 0.2772 0.1676 0.1210 0.7122 -0.4421 -0.4316 -0.7233 
0.5574 -0.5256 0.2781 0.1682 0.1219 0.7125 -0.4413 -0.4318 -0.7223 
0.5573 -0.5255 0.2787 0.1687 0.1225 0.7128 -0.4408 -0.4319 -0.7215 
0.5571 -0.5255 0.2793 0.1692 0.1232 0.7130 -0.4402 -0.4320 -0.7208 
0.5571 -0.5255 0.2796 0.1693 0.1234 0.7131 -0.4400 -0.4321 -0.7205 
0.5571 -0.5255 0.2796 0.1693 0.1235 0.7131 -0.4400 -0.4321 -0.7205 
0.5571 -0.5255 0.2794 0.1692 0.1233 0.7130 -0.4401 -0.4321 -0.7207 
0.5572 -0.5255 0.2791 0.1690 0.1229 0.7129 -0.4404 -0.4320 -0.7211 
0.5574 -0.5256 0.2780 0.1681 0.1217 0.7125 -0.4414 -0.4318 -0.7224 
0.5576 -0.5256 0.2770 0.1674 0.1207 0.7122 -0.4423 -0.4316 -0.7236 
0.5579 -0.5257 0.2759 0.1666 0.1195 0.7118 -0.4432 -0.4313 -0.7249 
0.5582 -0.5257 0.2747 0.1657 0.1181 0.7113 -0.4443 -0.4311 -0.7263 
0.5586 -0.5258 0.2733 0.1647 0.1165 0.7109 -0.4456 -0.4307 -0.7280 
0.5594 -0.5259 0.2704 0.1625 0.1132 0.7099 -0.4481 -0.4301 -0.7316 
0.5600 -0.5259 0.2683 0.1609 0.1108 0.7092 -0.4500 -0.4295 -0.7342 
0.5607 -0.5259 0.2662 0.1594 0.1083 0.7086 -0.4519 -0.4289 -0.7368 
0.5621 -0.5259 0.2624 0.1566 0.1038 0.7074 -0.4553 -0.4278 -0.7416 
0.5632 -0.5259 0.2596 0.1546 0.1006 0.7067 -0.4577 -0.4269 -0.7450 
0.5643 -0.5258 0.2571 0.1528 0.0975 0.7061 -0.4600 -0.4261 -0.7482 
0.5655 -0.5257 0.2546 0.1510 0.0945 0.7056 -0.4622 -0.4251 -0.7514 
0.5669 -0.5255 0.2521 0.1493 0.0915 0.7051 -0.4644 -0.4241 -0.7546 
0.5694 -0.5251 0.2477 0.1463 0.0860 0.7043 -0.4683 -0.4223 -0.7602 
0.5714 -0.5248 0.2447 0.1442 0.0822 0.7040 -0.4710 -0.4208 -0.7641 
0.5734 -0.5244 0.2421 0.1425 0.0789 0.7038 -0.4734 -0.4194 -0.7676 
0.5768 -0.5236 0.2379 0.1398 0.0736 0.7036 -0.4771 -0.4170 -0.7732 
0.5795 -0.5230 0.2351 0.1381 0.0699 0.7037 -0.4796 -0.4151 -0.7770 
0.5835 -0.5219 0.2313 0.1358 0.0648 0.7040 -0.4831 -0.4123 -0.7823 
0.5865 -0.5211 0.2288 0.1344 0.0614 0.7045 -0.4854 -0.4101 -0.7858 
0.5893 -0.5203 0.2268 0.1333 0.0587 0.7050 -0.4872 -0.4082 -0.7888 
0.5919 -0.5194 0.2251 0.1324 0.0562 0.7056 -0.4889 -0.4064 -0.7914 
0.5945 -0.5186 0.2235 0.1317 0.0539 0.7063 -0.4904 -0.4046 -0.7939 
0.5987 -0.5172 0.2211 0.1306 0.0505 0.7075 -0.4927 -0.4016 -0.7976 
0.6018 -0.5162 0.2197 0.1300 0.0482 0.7084 -0.4941 -0.3995 -0.8000 
0.6045 -0.5152 0.2185 0.1296 0.0465 0.7093 -0.4953 -0.3977 -0.8020 
0.6069 -0.5144 0.2176 0.1293 0.0449 0.7101 -0.4962 -0.3960 -0.8037 
0.6091 -0.5136 0.2167 0.1290 0.0436 0.7110 -0.4971 -0.3944 -0.8052 
0.6123 -0.5124 0.2156 0.1288 0.0418 0.7122 -0.4983 -0.3922 -0.8073 
0.6145 -0.5115 0.2150 0.1286 0.0406 0.7130 -0.4990 -0.3907 -0.8086 
0.6161 -0.5109 0.2145 0.1286 0.0398 0.7137 -0.4995 -0.3895 -0.8096 
0.6174 -0.5104 0.2142 0.1286 0.0391 0.7142 -0.4999 -0.3886 -0.8103 
0.6189 -0.5098 0.2138 0.1285 0.0384 0.7148 -0.5003 -0.3876 -0.8111 
0.6197 -0.5095 0.2136 0.1285 0.0381 0.7151 -0.5005 -0.3870 -0.8115 
0.6199 -0.5094 0.2135 0.1285 0.0380 0.7152 -0.5006 -0.3869 -0.8116 
0.6197 -0.5095 0.2136 0.1285 0.0381 0.7152 -0.5005 -0.3870 -0.8115 
0.6193 -0.5097 0.2137 0.1285 0.0383 0.7150 -0.5004 -0.3873 -0.8113 
0.6185 -0.5100 0.2139 0.1285 0.0386 0.7147 -0.5002 -0.3879 -0.8109 
0.6175 -0.5104 0.2141 0.1285 0.0391 0.7143 -0.4999 -0.3886 -0.8104 
0.6163 -0.5109 0.2144 0.1286 0.0397 0.7138 -0.4996 -0.3895 -0.8098 
0.6137 -0.5119 0.2151 0.1286 0.0409 0.7128 -0.4988 -0.3913 -0.8086 
0.6116 -0.5127 0.2157 0.1287 0.0420 0.7120 -0.4982 -0.3928 -0.8075 
0.6096 -0.5135 0.2164 0.1288 0.0430 0.7113 -0.4975 -0.3943 -0.8064 
0.6075 -0.5143 0.2171 0.1290 0.0442 0.7106 -0.4968 -0.3958 -0.8053 
0.6038 -0.5157 0.2184 0.1293 0.0463 0.7094 -0.4955 -0.3985 -0.8034 
0.6010 -0.5167 0.2196 0.1297 0.0481 0.7085 -0.4944 -0.4005 -0.8018 
0.5985 -0.5177 0.2207 0.1301 0.0497 0.7078 -0.4934 -0.4023 -0.8004 
0.5944 -0.5191 0.2227 0.1308 0.0526 0.7068 -0.4917 -0.4052 -0.7981 
0.5915 -0.5201 0.2243 0.1315 0.0548 0.7062 -0.4903 -0.4073 -0.7963 
0.5890 -0.5209 0.2258 0.1322 0.0568 0.7057 -0.4890 -0.4091 -0.7947 
0.5867 -0.5216 0.2274 0.1329 0.0588 0.7054 -0.4877 -0.4108 -0.7932 
0.5845 -0.5222 0.2290 0.1337 0.0609 0.7051 -0.4865 -0.4123 -0.7917 
0.5810 -0.5232 0.2317 0.1351 0.0643 0.7047 -0.4843 -0.4148 -0.7892 
0.5785 -0.5239 0.2339 0.1362 0.0668 0.7046 -0.4827 -0.4165 -0.7875 
0.5765 -0.5243 0.2358 0.1373 0.0691 0.7046 -0.4812 -0.4179 -0.7859 
0.5736 -0.5250 0.2389 0.1390 0.0726 0.7047 -0.4789 -0.4199 -0.7836 
0.5717 -0.5253 0.2412 0.1403 0.0752 0.7049 -0.4773 -0.4213 -0.7820 
0.5702 -0.5256 0.2432 0.1415 0.0774 0.7052 -0.4759 -0.4223 -0.7806 
0.5689 -0.5257 0.2450 0.1426 0.0794 0.7055 -0.4745 -0.4232 -0.7794 
0.5676 -0.5259 0.2469 0.1436 0.0814 0.7058 -0.4733 -0.4240 -0.7782 
0.5666 -0.5260 0.2486 0.1447 0.0832 0.7061 -0.4721 -0.4247 -0.7771 
0.5650 -0.5261 0.2513 0.1464 0.0860 0.7067 -0.4702 -0.4258 -0.7755 
0.5639 -0.5261 0.2532 0.1475 0.0880 0.7071 -0.4689 -0.4264 -0.7744 
0.5632 -0.5260 0.2548 0.1485 0.0896 0.7075 -0.4679 -0.4269 -0.7735 
0.5621 -0.5260 0.2570 0.1499 0.0918 0.7080 -0.4664 -0.4275 -0.7724 
0.5615 -0.5259 0.2585 0.1508 0.0932 0.7084 -0.4654 -0.4279 -0.7716 
0.5610 -0.5259 0.2596 0.1515 0.0944 0.7087 -0.4647 -0.4282 -0.7710 
0.5606 -0.5258 0.2606 0.1521 0.0953 0.7090 -0.4641 -0.4284 -0.7706 
0.5603 -0.5257 0.2614 0.1527 0.0961 0.7092 -0.4635 -0.4286 -0.7702 
0.5599 -0.5257 0.2625 0.1534 0.0971 0.7095 -0.4628 -0.4288 -0.7696 
0.5597 -0.5256 0.2631 0.1538 0.0977 0.7097 -0.4624 -0.4290 -0.7694 
0.5595 -0.5256 0.2637 0.1542 0.0983 0.7099 -0.4620 -0.4291 -0.7691 
0.5594 -0.5255 0.2640 0.1543 0.0985 0.7100 -0.4619 -0.4291 -0.7690 
0.5593 -0.5255 0.2641 0.1544 0.0987 0.7100 -0.4618 -0.4292 -0.7689 
0.5593 -0.5255 0.2641 0.1544 0.0987 0.7100 -0.4618 -0.4292 -0.7689 
0.5594 -0.5255 0.2639 0.1543 0.0985 0.7099 -0.4619 -0.4291 -0.7690 
0.5595 -0.5256 0.2636 0.1541 0.0982 0.7099 -0.4621 -0.4291 -0.7691 
0.5596 -0.5256 0.2633 0.1539 0.0980 0.7098 -0.4623 -0.4290 -0.7692 
0.5597 -0.5256 0.2630 0.1537 0.0977 0.7097 -0.4625 -0.4290 -0.7694 
0.5600 -0.5257 0.2623 0.1532 0.0970 0.7095 -0.4629 -0.4288 -0.7696 
0.5602 -0.5257 0.2617 0.1529 0.0965 0.7094 -0.4633 -0.4287 -0.7698 
0.5604 -0.5258 0.2612 0.1525 0.0960 0.7092 -0.4636 -0.4286 -0.7700 
0.5606 -0.5258 0.2606 0.1522 0.0955 0.7091 -0.4639 -0.4285 -0.7702 
0.5608 -0.5259 0.2601 0.1518 0.0950 0.7090 -0.4643 -0.4283 -0.7704 
0.5612 -0.5259 0.2590 0.1512 0.0941 0.7087 -0.4649 -0.4281 -0.7708 
0.5615 -0.5260 0.2583 0.1507 0.0935 0.7086 -0.4654 -0.4279 -0.7710 
0.5618 -0.5260 0.2577 0.1503 0.0930 0.7084 -0.4657 -0.4278 -0.7713 
0.5620 -0.5260 0.2571 0.1499 0.0924 0.7083 -0.4661 -0.4276 -0.7715 
0.5623 -0.5261 0.2565 0.1495 0.0919 0.7082 -0.4665 -0.4274 -0.7717 
0.5628 -0.5261 0.2555 0.1489 0.0910 0.7080 -0.4671 -0.4272 -0.7720 
0.5631 -0.5261 0.2548 0.1485 0.0905 0.7078 -0.4675 -0.4270 -0.7722 
0.5634 -0.5261 0.2542 0.1481 0.0900 0.7077 -0.4679 -0.4268 -0.7724 
0.5638 -0.5261 0.2532 0.1475 0.0892 0.7076 -0.4684 -0.4265 -0.7727 
0.5642 -0.5261 0.2526 0.1471 0.0887 0.7074 -0.4688 -0.4263 -0.7729 
0.5644 -0.5261 0.2521 0.1468 0.0883 0.7074 -0.4691 -0.4261 -0.7730 
0.5647 -0.5261 0.2516 0.1465 0.0879 0.7073 -0.4694 -0.4260 -0.7732 
0.5651 -0.5261 0.2509 0.1460 0.0873 0.7072 -0.4698 -0.4257 -0.7734 
0.5654 -0.5261 0.2504 0.1457 0.0869 0.7071 -0.4701 -0.4255 -0.7735 
0.5656 -0.5261 0.2500 0.1455 0.0865 0.7070 -0.4704 -0.4254 -0.7736 
0.5658 -0.5261 0.2496 0.1453 0.0862 0.7070 -0.4706 -0.4252 -0.7737 
0.5661 -0.5261 0.2490 0.1449 0.0858 0.7069 -0.4709 -0.4250 -0.7739 
0.5664 -0.5260 0.2487 0.1447 0.0855 0.7069 -0.4711 -0.4249 -0.7740 
0.5665 -0.5260 0.2484 0.1445 0.0853 0.7068 -0.4713 -0.4247 -0.7740 
0.5667 -0.5260 0.2481 0.1444 0.0851 0.7068 -0.4714 -0.4246 -0.7741 
0.5669 -0.5260 0.2479 0.1442 0.0849 0.7068 -0.4716 -0.4245 -0.7742 
0.5671 -0.5260 0.2475 0.1440 0.0846 0.7067 -0.4718 -0.4244 -0.7742 
0.5672 -0.5260 0.2473 0.1439 0.0845 0.7067 -0.4719 -0.4243 -0.7743 
0.5673 -0.5259 0.2471 0.1438 0.0843 0.7067 -0.4720 -0.4242 -0.7743 
0.5675 -0.5259 0.2468 0.1436 0.0842 0.7067 -0.4722 -0.4241 -0.7744 
0.5676 -0.5259 0.2467 0.1435 0.0840 0.7067 -0.4722 -0.4240 -0.7744 
0.5677 -0.5259 0.2466 0.1434 0.0840 0.7066 -0.4723 -0.4240 -0.7745 
0.5678 -0.5259 0.2465 0.1434 0.0839 0.7066 -0.4724 -0.4239 -0.7745 
0.5678 -0.5259 0.2464 0.1433 0.0838 0.7066 -0.4724 -0.4239 -0.7745 
0.5679 -0.5259 0.2462 0.1433 0.0837 0.7066 -0.4725 -0.4238 -0.7745 
0.5679 -0.5259 0.2462 0.1432 0.0837 0.7066 -0.4725 -0.4238 -0.7745 
0.5680 -0.5259 0.2461 0.1432 0.0837 0.7066 -0.4726 -0.4238 -0.7745 
0.5680 -0.5259 0.2461 0.1432 0.0836 0.7066 -0.4726 -0.4238 -0.7745 
0.5680 -0.5259 0.2460 0.1431 0.0836 0.7066 -0.4726 -0.4238 -0.7746 
0.5680 -0.5259 0.2460 0.1431 0.0836 0.7066 -0.4726 -0.4237 -0.7746 
0.5681 -0.5259 0.2460 0.1431 0.0836 0.7066 -0.4726 -0.4237 -0.7746 
0.5681 -0.5258 0.2460 0.1431 0.0836 0.7066 -0.4726 -0.4237 -0.7746 
0.5681 -0.5259 0.2460 0.1431 0.0836 0.7066 -0.4726 -0.4237 -0.7746 
0.5681 -0.5259 0.2460 0.1431 0.0836 0.7066 -0.4726 -0.4237 -0.7746 
0.5680 -0.5259 0.2460 0.1431 0.0836 0.7066 -0.4726 -0.4237 -0.7746 
0.5680 -0.5259 0.2460 0.1431 0.0836 0.7066 -0.4726 -0.4238 -0.7746 
0.5680 -0.5259 0.2461 0.1431 0.0836 0.7066 -0.4726 -0.4238 -0.7746 
0.5680 -0.5259 0.2461 0.1432 0.0836 0.7066 -0.4726 -0.4238 -0.7745 
0.5817 -0.5247 0.2250 0.1334 0.0738 0.7029 -0.4882 -0.4186 -0.7852 
0.5828 -0.5245 0.2241 0.1331 0.0734 0.7028 -0.4888 -0.4182 -0.7856 
0.5829 -0.5245 0.2240 0.1331 0.0734 0.7028 -0.4888 -0.4182 -0.7857 
0.5827 -0.5245 0.2241 0.1332 0.0735 0.7028 -0.4888 -0.4182 -0.7856 
0.5826 -0.5245 0.2243 0.1332 0.0735 0.7028 -0.4887 -0.4183 -0.7855 
0.5825 -0.5246 0.2243 0.1332 0.0736 0.7028 -0.4886 -0.4183 -0.7855 
0.5824 -0.5246 0.2244 0.1332 0.0736 0.7029 -0.4886 -0.4184 -0.7855 
0.5822 -0.5246 0.2245 0.1333 0.0737 0.7029 -0.4885 -0.4184 -0.7854 
0.5821 -0.5246 0.2246 0.1333 0.0737 0.7029 -0.4885 -0.4185 -0.7854 
0.5820 -0.5246 0.2247 0.1333 0.0737 0.7029 -0.4884 -0.4185 -0.7853 
0.5817 -0.5247 0.2249 0.1334 0.0739 0.7029 -0.4883 -0.4186 -0.7852 
0.5816 -0.5247 0.2251 0.1334 0.0739 0.7029 -0.4882 -0.4187 -0.7851 
0.5813 -0.5247 0.2253 0.1335 0.0741 0.7029 -0.4880 -0.4188 -0.7849 
0.5810 -0.5248 0.2255 0.1335 0.0742 0.7030 -0.4879 -0.4189 -0.7848 
0.5808 -0.5248 0.2257 0.1336 0.0743 0.7030 -0.4878 -0.4189 -0.7847 
0.5806 -0.5248 0.2259 0.1336 0.0744 0.7030 -0.4876 -0.4190 -0.7846 
0.5804 -0.5249 0.2261 0.1337 0.0745 0.7030 -0.4875 -0.4191 -0.7845 
0.5801 -0.5249 0.2263 0.1338 0.0746 0.7030 -0.4873 -0.4192 -0.7843 
0.5799 -0.5250 0.2266 0.1338 0.0747 0.7031 -0.4872 -0.4193 -0.7842 
0.5793 -0.5250 0.2270 0.1340 0.0750 0.7031 -0.4869 -0.4195 -0.7838 
0.5789 -0.5251 0.2274 0.1341 0.0752 0.7032 -0.4866 -0.4197 -0.7836 
0.5786 -0.5251 0.2277 0.1342 0.0754 0.7032 -0.4864 -0.4198 -0.7834 
0.5782 -0.5252 0.2280 0.1343 0.0756 0.7033 -0.4862 -0.4200 -0.7832 
0.5775 -0.5253 0.2287 0.1345 0.0760 0.7033 -0.4857 -0.4203 -0.7827 
0.5770 -0.5254 0.2292 0.1347 0.0763 0.7034 -0.4854 -0.4205 -0.7823 
0.5765 -0.5254 0.2296 0.1349 0.0766 0.7035 -0.4851 -0.4207 -0.7820 
0.5756 -0.5256 0.2305 0.1352 0.0771 0.7036 -0.4845 -0.4211 -0.7813 
0.5750 -0.5257 0.2311 0.1354 0.0775 0.7037 -0.4840 -0.4213 -0.7809 
0.5745 -0.5257 0.2317 0.1357 0.0779 0.7038 -0.4836 -0.4216 -0.7804 
0.5739 -0.5258 0.2323 0.1359 0.0783 0.7039 -0.4832 -0.4218 -0.7799 
0.5733 -0.5259 0.2330 0.1362 0.0788 0.7040 -0.4827 -0.4221 -0.7794 
0.5722 -0.5260 0.2342 0.1367 0.0796 0.7043 -0.4818 -0.4226 -0.7784 
0.5714 -0.5261 0.2351 0.1371 0.0803 0.7044 -0.4812 -0.4229 -0.7777 
0.5707 -0.5262 0.2359 0.1374 0.0808 0.7046 -0.4806 -0.4232 -0.7770 
0.5701 -0.5263 0.2368 0.1378 0.0815 0.7048 -0.4799 -0.4235 -0.7763 
0.5688 -0.5264 0.2384 0.1386 0.0827 0.7051 -0.4787 -0.4241 -0.7748 
0.5673 -0.5266 0.2404 0.1395 0.0841 0.7056 -0.4773 -0.4248 -0.7731 
0.5664 -0.5267 0.2416 0.1402 0.0851 0.7059 -0.4763 -0.4252 -0.7720 
0.5657 -0.5267 0.2428 0.1407 0.0860 0.7062 -0.4754 -0.4256 -0.7709 
0.5649 -0.5268 0.2440 0.1414 0.0869 0.7065 -0.4745 -0.4260 -0.7699 
0.5642 -0.5268 0.2452 0.1420 0.0879 0.7069 -0.4736 -0.4263 -0.7688 
0.5634 -0.5269 0.2464 0.1427 0.0889 0.7072 -0.4726 -0.4267 -0.7676 
0.5627 -0.5269 0.2477 0.1434 0.0899 0.7076 -0.4716 -0.4271 -0.7664 
0.5614 -0.5270 0.2501 0.1447 0.0919 0.7083 -0.4697 -0.4278 -0.7641 
0.5606 -0.5270 0.2517 0.1457 0.0932 0.7089 -0.4685 -0.4282 -0.7625 
0.5593 -0.5270 0.2544 0.1472 0.0954 0.7097 -0.4664 -0.4289 -0.7600 
0.5586 -0.5270 0.2561 0.1482 0.0969 0.7103 -0.4650 -0.4293 -0.7583 
0.5580 -0.5270 0.2576 0.1492 0.0982 0.7108 -0.4638 -0.4296 -0.7567 
0.5574 -0.5270 0.2591 0.1501 0.0995 0.7114 -0.4626 -0.4300 -0.7552 
0.5569 -0.5269 0.2606 0.1511 0.1008 0.7119 -0.4614 -0.4303 -0.7537 
0.5563 -0.5269 0.2621 0.1520 0.1021 0.7125 -0.4602 -0.4306 -0.7522 
0.5559 -0.5268 0.2635 0.1529 0.1035 0.7131 -0.4590 -0.4309 -0.7507 
0.5547 -0.5267 0.2671 0.1553 0.1068 0.7145 -0.4560 -0.4317 -0.7469 
0.5543 -0.5266 0.2689 0.1565 0.1084 0.7152 -0.4545 -0.4320 -0.7450 
0.5539 -0.5265 0.2703 0.1574 0.1097 0.7158 -0.4534 -0.4322 -0.7436 
0.5536 -0.5264 0.2715 0.1583 0.1109 0.7163 -0.4524 -0.4324 -0.7423 
0.5534 -0.5264 0.2726 0.1590 0.1119 0.7168 -0.4515 -0.4326 -0.7411 
0.5532 -0.5263 0.2737 0.1598 0.1129 0.7172 -0.4506 -0.4328 -0.7400 
0.5529 -0.5262 0.2752 0.1608 0.1144 0.7179 -0.4493 -0.4330 -0.7383 
0.5527 -0.5261 0.2761 0.1614 0.1152 0.7183 -0.4486 -0.4332 -0.7374 
0.5526 -0.5261 0.2766 0.1619 0.1158 0.7185 -0.4481 -0.4333 -0.7368 
0.5525 -0.5260 0.2773 0.1623 0.1164 0.7188 -0.4476 -0.4333 -0.7361 
0.5525 -0.5260 0.2775 0.1624 0.1166 0.7189 -0.4474 -0.4334 -0.7359 
0.5525 -0.5260 0.2774 0.1624 0.1166 0.7189 -0.4475 -0.4334 -0.7359 
0.5525 -0.5260 0.2772 0.1623 0.1164 0.7188 -0.4476 -0.4333 -0.7361 
0.5526 -0.5260 0.2768 0.1620 0.1160 0.7186 -0.4480 -0.4333 -0.7366 
0.5528 -0.5261 0.2757 0.1611 0.1148 0.7181 -0.4489 -0.4331 -0.7379 
0.5530 -0.5262 0.2746 0.1604 0.1137 0.7176 -0.4498 -0.4329 -0.7390 
0.5532 -0.5263 0.2735 0.1596 0.1125 0.7172 -0.4507 -0.4328 -0.7403 
0.5534 -0.5264 0.2722 0.1587 0.1111 0.7166 -0.4518 -0.4325 -0.7418 
0.5537 -0.5265 0.2708 0.1576 0.1095 0.7160 -0.4530 -0.4323 -0.7434 
0.5544 -0.5267 0.2678 0.1554 0.1063 0.7147 -0.4555 -0.4317 -0.7468 
0.5550 -0.5269 0.2655 0.1539 0.1038 0.7139 -0.4574 -0.4313 -0.7494 
0.5556 -0.5270 0.2634 0.1523 0.1014 0.7130 -0.4592 -0.4308 -0.7519 
0.5568 -0.5271 0.2594 0.1496 0.0970 0.7116 -0.4624 -0.4299 -0.7564 
0.5579 -0.5272 0.2566 0.1476 0.0938 0.7106 -0.4648 -0.4291 -0.7597 
0.5589 -0.5272 0.2540 0.1458 0.0908 0.7097 -0.4669 -0.4284 -0.7627 
0.5600 -0.5272 0.2514 0.1441 0.0879 0.7090 -0.4690 -0.4276 -0.7657 
0.5613 -0.5271 0.2488 0.1424 0.0849 0.7082 -0.4712 -0.4267 -0.7688 
0.5636 -0.5269 0.2444 0.1394 0.0797 0.7071 -0.4748 -0.4251 -0.7741 
0.5656 -0.5267 0.2412 0.1375 0.0760 0.7064 -0.4774 -0.4237 -0.7778 
0.5674 -0.5264 0.2385 0.1358 0.0728 0.7059 -0.4796 -0.4225 -0.7810 
0.5707 -0.5259 0.2343 0.1332 0.0676 0.7053 -0.4831 -0.4203 -0.7862 
0.5732 -0.5254 0.2314 0.1316 0.0641 0.7051 -0.4855 -0.4186 -0.7898 
0.5771 -0.5245 0.2275 0.1294 0.0593 0.7051 -0.4887 -0.4160 -0.7947 
0.5801 -0.5238 0.2250 0.1282 0.0561 0.7053 -0.4908 -0.4141 -0.7980 
0.5828 -0.5230 0.2230 0.1272 0.0536 0.7056 -0.4925 -0.4123 -0.8007 
0.5854 -0.5223 0.2212 0.1264 0.0512 0.7059 -0.4940 -0.4106 -0.8031 
0.5880 -0.5216 0.2196 0.1257 0.0491 0.7064 -0.4954 -0.4089 -0.8054 
0.5921 -0.5203 0.2172 0.1248 0.0459 0.7073 -0.4975 -0.4062 -0.8088 
0.5952 -0.5194 0.2157 0.1243 0.0439 0.7080 -0.4988 -0.4042 -0.8111 
0.5978 -0.5185 0.2145 0.1239 0.0422 0.7088 -0.4998 -0.4024 -0.8129 
0.6002 -0.5177 0.2135 0.1237 0.0408 0.7095 -0.5007 -0.4008 -0.8144 
0.6024 -0.5169 0.2127 0.1236 0.0396 0.7102 -0.5014 -0.3994 -0.8158 
0.6057 -0.5158 0.2116 0.1234 0.0379 0.7112 -0.5024 -0.3972 -0.8177 
0.6078 -0.5151 0.2109 0.1233 0.0369 0.7119 -0.5031 -0.3958 -0.8189 
0.6095 -0.5145 0.2104 0.1233 0.0361 0.7125 -0.5035 -0.3947 -0.8197 
0.6109 -0.5140 0.2101 0.1234 0.0356 0.7130 -0.5039 -0.3938 -0.8204 
0.6124 -0.5134 0.2097 0.1234 0.0349 0.7136 -0.5042 -0.3927 -0.8212 
0.6132 -0.5131 0.2095 0.1234 0.0346 0.7139 -0.5044 -0.3922 -0.8215 
0.6135 -0.5130 0.2094 0.1234 0.0345 0.7140 -0.5045 -0.3920 -0.8217 
0.6134 -0.5130 0.2094 0.1234 0.0345 0.7139 -0.5045 -0.3920 -0.8216 
0.6129 -0.5132 0.2095 0.1234 0.0347 0.7138 -0.5044 -0.3923 -0.8214 
0.6123 -0.5135 0.2097 0.1234 0.0350 0.7135 -0.5042 -0.3928 -0.8211 
0.6113 -0.5138 0.2099 0.1233 0.0354 0.7132 -0.5040 -0.3935 -0.8207 
0.6102 -0.5142 0.2102 0.1233 0.0358 0.7128 -0.5037 -0.3943 -0.8202 
0.6077 -0.5152 0.2108 0.1233 0.0369 0.7119 -0.5031 -0.3959 -0.8191 
0.6056 -0.5159 0.2114 0.1233 0.0378 0.7113 -0.5026 -0.3973 -0.8182 
0.6037 -0.5166 0.2120 0.1233 0.0387 0.7107 -0.5020 -0.3987 -0.8173 
0.6016 -0.5174 0.2127 0.1234 0.0397 0.7100 -0.5015 -0.4001 -0.8163 
0.5980 -0.5186 0.2140 0.1236 0.0415 0.7090 -0.5003 -0.4026 -0.8146 
0.5952 -0.5196 0.2151 0.1238 0.0431 0.7083 -0.4994 -0.4044 -0.8132 
0.5927 -0.5204 0.2162 0.1241 0.0445 0.7078 -0.4986 -0.4061 -0.8120 
0.5888 -0.5217 0.2181 0.1246 0.0470 0.7069 -0.4971 -0.4088 -0.8099 
0.5859 -0.5226 0.2197 0.1252 0.0490 0.7064 -0.4959 -0.4107 -0.8083 
0.5834 -0.5233 0.2212 0.1257 0.0508 0.7061 -0.4947 -0.4124 -0.8069 
0.5811 -0.5239 0.2227 0.1263 0.0526 0.7059 -0.4936 -0.4139 -0.8056 
0.5789 -0.5245 0.2243 0.1270 0.0544 0.7057 -0.4925 -0.4154 -0.8042 
0.5754 -0.5254 0.2269 0.1281 0.0575 0.7056 -0.4906 -0.4176 -0.8021 
0.5730 -0.5259 0.2290 0.1291 0.0598 0.7056 -0.4891 -0.4192 -0.8005 
0.5710 -0.5263 0.2309 0.1300 0.0619 0.7057 -0.4878 -0.4205 -0.7991 
0.5682 -0.5269 0.2339 0.1315 0.0651 0.7060 -0.4858 -0.4223 -0.7970 
0.5662 -0.5271 0.2362 0.1327 0.0674 0.7063 -0.4843 -0.4235 -0.7956 
0.5647 -0.5273 0.2381 0.1337 0.0694 0.7067 -0.4830 -0.4244 -0.7943 
0.5634 -0.5274 0.2400 0.1347 0.0713 0.7071 -0.4818 -0.4252 -0.7932 
0.5622 -0.5275 0.2418 0.1357 0.0731 0.7074 -0.4806 -0.4259 -0.7922 
0.5611 -0.5275 0.2435 0.1367 0.0748 0.7079 -0.4795 -0.4265 -0.7912 
0.5595 -0.5276 0.2461 0.1382 0.0773 0.7085 -0.4778 -0.4275 -0.7897 
0.5585 -0.5275 0.2480 0.1392 0.0792 0.7090 -0.4766 -0.4280 -0.7887 
0.5577 -0.5275 0.2495 0.1401 0.0806 0.7095 -0.4757 -0.4284 -0.7879 
0.5567 -0.5273 0.2517 0.1414 0.0827 0.7101 -0.4743 -0.4290 -0.7869 
0.5560 -0.5273 0.2531 0.1422 0.0840 0.7106 -0.4734 -0.4293 -0.7862 
0.5556 -0.5272 0.2542 0.1429 0.0850 0.7109 -0.4727 -0.4295 -0.7857 
0.5552 -0.5271 0.2551 0.1434 0.0859 0.7112 -0.4722 -0.4297 -0.7853 
0.5549 -0.5270 0.2560 0.1439 0.0866 0.7115 -0.4717 -0.4299 -0.7849 
0.5545 -0.5269 0.2570 0.1445 0.0876 0.7118 -0.4710 -0.4301 -0.7844 
0.5542 -0.5268 0.2576 0.1449 0.0881 0.7120 -0.4707 -0.4302 -0.7842 
0.5540 -0.5268 0.2581 0.1452 0.0886 0.7122 -0.4703 -0.4303 -0.7840 
0.5539 -0.5267 0.2584 0.1454 0.0888 0.7123 -0.4702 -0.4303 -0.7839 
0.5539 -0.5267 0.2585 0.1454 0.0889 0.7123 -0.4701 -0.4303 -0.7838 
0.5539 -0.5267 0.2585 0.1454 0.0889 0.7123 -0.4701 -0.4303 -0.7838 
0.5540 -0.5268 0.2582 0.1453 0.0887 0.7122 -0.4703 -0.4303 -0.7839 
0.5541 -0.5268 0.2580 0.1451 0.0884 0.7121 -0.4704 -0.4302 -0.7840 
0.5542 -0.5268 0.2576 0.1449 0.0882 0.7120 -0.4706 -0.4302 -0.7841 
0.5544 -0.5269 0.2573 0.1447 0.0878 0.7119 -0.4709 -0.4301 -0.7843 
0.5546 -0.5270 0.2565 0.1443 0.0872 0.7117 -0.4713 -0.4300 -0.7845 
0.5549 -0.5270 0.2559 0.1439 0.0867 0.7115 -0.4716 -0.4299 -0.7847 
0.5551 -0.5271 0.2554 0.1436 0.0862 0.7114 -0.4720 -0.4298 -0.7849 
0.5553 -0.5271 0.2548 0.1432 0.0857 0.7112 -0.4723 -0.4297 -0.7851 
0.5555 -0.5272 0.2542 0.1429 0.0853 0.7110 -0.4726 -0.4296 -0.7853 
0.5560 -0.5273 0.2532 0.1423 0.0844 0.7108 -0.4732 -0.4294 -0.7857 
0.5563 -0.5273 0.2525 0.1418 0.0838 0.7106 -0.4737 -0.4292 -0.7859 
0.5566 -0.5274 0.2518 0.1414 0.0832 0.7104 -0.4741 -0.4291 -0.7861 
0.5569 -0.5274 0.2512 0.1411 0.0827 0.7103 -0.4744 -0.4289 -0.7863 
0.5571 -0.5275 0.2506 0.1407 0.0822 0.7101 -0.4748 -0.4288 -0.7865 
0.5576 -0.5275 0.2496 0.1401 0.0814 0.7099 -0.4754 -0.4285 -0.7868 
0.5580 -0.5276 0.2489 0.1397 0.0808 0.7097 -0.4758 -0.4283 -0.7870 
0.5583 -0.5276 0.2483 0.1393 0.0803 0.7096 -0.4761 -0.4281 -0.7872 
0.5588 -0.5276 0.2473 0.1388 0.0795 0.7094 -0.4767 -0.4279 -0.7875 
0.5591 -0.5276 0.2467 0.1384 0.0790 0.7092 -0.4770 -0.4277 -0.7876 
0.5594 -0.5276 0.2462 0.1381 0.0786 0.7091 -0.4773 -0.4275 -0.7878 
0.5597 -0.5276 0.2457 0.1378 0.0782 0.7090 -0.4776 -0.4274 -0.7879 
0.5602 -0.5276 0.2449 0.1374 0.0776 0.7089 -0.4781 -0.4271 -0.7881 
0.5605 -0.5276 0.2444 0.1371 0.0772 0.7088 -0.4783 -0.4269 -0.7883 
0.5607 -0.5276 0.2440 0.1368 0.0769 0.7087 -0.4786 -0.4268 -0.7884 
0.5610 -0.5276 0.2436 0.1366 0.0766 0.7087 -0.4788 -0.4266 -0.7885 
0.5613 -0.5276 0.2430 0.1363 0.0762 0.7086 -0.4791 -0.4264 -0.7886 
0.5616 -0.5276 0.2426 0.1361 0.0759 0.7085 -0.4793 -0.4263 -0.7887 
0.5618 -0.5276 0.2423 0.1359 0.0757 0.7085 -0.4795 -0.4262 -0.7888 
0.5619 -0.5276 0.2421 0.1358 0.0755 0.7084 -0.4796 -0.4261 -0.7888 
0.5621 -0.5276 0.2418 0.1356 0.0753 0.7084 -0.4798 -0.4260 -0.7889 
0.5624 -0.5276 0.2414 0.1354 0.0750 0.7084 -0.4800 -0.4258 -0.7890 
0.5625 -0.5275 0.2412 0.1353 0.0748 0.7083 -0.4801 -0.4257 -0.7890 
0.5627 -0.5275 0.2410 0.1352 0.0747 0.7083 -0.4802 -0.4256 -0.7891 
0.5629 -0.5275 0.2407 0.1350 0.0745 0.7083 -0.4804 -0.4255 -0.7891 
0.5630 -0.5275 0.2406 0.1349 0.0744 0.7082 -0.4805 -0.4254 -0.7892 
0.5631 -0.5275 0.2404 0.1348 0.0743 0.7082 -0.4805 -0.4254 -0.7892 
0.5631 -0.5275 0.2403 0.1348 0.0742 0.7082 -0.4806 -0.4253 -0.7892 
0.5632 -0.5275 0.2402 0.1347 0.0741 0.7082 -0.4807 -0.4253 -0.7892 
0.5633 -0.5275 0.2401 0.1346 0.0741 0.7082 -0.4807 -0.4252 -0.7893 
0.5634 -0.5275 0.2400 0.1346 0.0740 0.7082 -0.4808 -0.4252 -0.7893 
0.5634 -0.5275 0.2399 0.1346 0.0740 0.7082 -0.4808 -0.4252 -0.7893 
0.5635 -0.5275 0.2399 0.1345 0.0739 0.7082 -0.4808 -0.4252 -0.7893 
0.5635 -0.5274 0.2398 0.1345 0.0739 0.7082 -0.4809 -0.4251 -0.7893 
0.5635 -0.5274 0.2398 0.1345 0.0739 0.7082 -0.4809 -0.4251 -0.7893 
0.5636 -0.5274 0.2397 0.1345 0.0738 0.7082 -0.4809 -0.4251 -0.7893 
0.5636 -0.5274 0.2397 0.1345 0.0738 0.7082 -0.4809 -0.4251 -0.7893 
0.5636 -0.5274 0.2397 0.1345 0.0738 0.7082 -0.4809 -0.4251 -0.7893 
0.5636 -0.5274 0.2397 0.1345 0.0738 0.7082 -0.4809 -0.4251 -0.7893 
0.5636 -0.5274 0.2397 0.1345 0.0738 0.7082 -0.4809 -0.4251 -0.7893 
0.5636 -0.5274 0.2397 0.1345 0.0738 0.7082 -0.4809 -0.4251 -0.7893 
0.5636 -0.5274 0.2398 0.1345 0.0738 0.7082 -0.4809 -0.4251 -0.7893 
0.5635 -0.5274 0.2398 0.1345 0.0738 0.7082 -0.4809 -0.4251 -0.7893 
0.5748 -0.5266 0.2228 0.1271 0.0659 0.7045 -0.4930 -0.4208 -0.7978 
0.5758 -0.5264 0.2219 0.1269 0.0655 0.7044 -0.4936 -0.4204 -0.7982 
0.5759 -0.5264 0.2218 0.1269 0.0655 0.7043 -0.4936 -0.4204 -0.7982 
0.5757 -0.5265 0.2219 0.1269 0.0655 0.7044 -0.4935 -0.4205 -0.7982 
0.5756 -0.5265 0.2220 0.1269 0.0656 0.7044 -0.4935 -0.4205 -0.7981 
0.5755 -0.5265 0.2221 0.1269 0.0656 0.7044 -0.4934 -0.4206 -0.7981 
0.5754 -0.5265 0.2222 0.1270 0.0657 0.7044 -0.4934 -0.4206 -0.7980 
0.5753 -0.5265 0.2223 0.1270 0.0657 0.7044 -0.4933 -0.4206 -0.7980 
0.5752 -0.5265 0.2224 0.1270 0.0658 0.7044 -0.4932 -0.4207 -0.7979 
0.5751 -0.5265 0.2225 0.1270 0.0658 0.7044 -0.4932 -0.4207 -0.7979 
0.5749 -0.5266 0.2227 0.1271 0.0659 0.7045 -0.4931 -0.4208 -0.7978 
0.5747 -0.5266 0.2228 0.1271 0.0660 0.7045 -0.4930 -0.4209 -0.7977 
0.5744 -0.5266 0.2231 0.1272 0.0661 0.7045 -0.4928 -0.4210 -0.7975 
0.5742 -0.5267 0.2233 0.1272 0.0662 0.7046 -0.4927 -0.4211 -0.7974 
0.5740 -0.5267 0.2235 0.1273 0.0663 0.7046 -0.4926 -0.4211 -0.7973 
0.5738 -0.5267 0.2236 0.1273 0.0664 0.7046 -0.4925 -0.4212 -0.7972 
0.5736 -0.5268 0.2238 0.1274 0.0665 0.7047 -0.4923 -0.4213 -0.7971 
0.5734 -0.5268 0.2241 0.1275 0.0666 0.7047 -0.4922 -0.4214 -0.7970 
0.5731 -0.5268 0.2243 0.1275 0.0667 0.7047 -0.4920 -0.4215 -0.7968 
0.5726 -0.5269 0.2248 0.1277 0.0670 0.7048 -0.4917 -0.4217 -0.7965 
0.5723 -0.5269 0.2251 0.1278 0.0672 0.7049 -0.4915 -0.4218 -0.7963 
0.5719 -0.5270 0.2254 0.1279 0.0674 0.7049 -0.4913 -0.4220 -0.7961 
0.5716 -0.5270 0.2258 0.1280 0.0676 0.7050 -0.4911 -0.4221 -0.7959 
0.5709 -0.5271 0.2264 0.1282 0.0680 0.7051 -0.4907 -0.4224 -0.7954 
0.5705 -0.5272 0.2269 0.1284 0.0683 0.7052 -0.4904 -0.4226 -0.7951 
0.5700 -0.5272 0.2274 0.1285 0.0685 0.7053 -0.4901 -0.4228 -0.7948 
0.5692 -0.5273 0.2282 0.1288 0.0691 0.7055 -0.4895 -0.4231 -0.7941 
0.5686 -0.5274 0.2289 0.1290 0.0695 0.7057 -0.4891 -0.4233 -0.7937 
0.5681 -0.5275 0.2294 0.1293 0.0699 0.7058 -0.4887 -0.4236 -0.7933 
0.5676 -0.5275 0.2300 0.1295 0.0703 0.7059 -0.4883 -0.4238 -0.7928 
0.5670 -0.5276 0.2307 0.1298 0.0707 0.7061 -0.4878 -0.4240 -0.7923 
0.5659 -0.5277 0.2320 0.1303 0.0715 0.7064 -0.4869 -0.4245 -0.7913 
0.5652 -0.5278 0.2328 0.1306 0.0721 0.7066 -0.4863 -0.4248 -0.7906 
0.5646 -0.5278 0.2337 0.1310 0.0727 0.7068 -0.4858 -0.4251 -0.7900 
0.5639 -0.5279 0.2345 0.1314 0.0733 0.7071 -0.4852 -0.4254 -0.7893 
0.5627 -0.5280 0.2362 0.1321 0.0745 0.7075 -0.4840 -0.4260 -0.7879 
0.5614 -0.5281 0.2381 0.1330 0.0759 0.7081 -0.4826 -0.4266 -0.7863 
0.5605 -0.5282 0.2394 0.1336 0.0769 0.7085 -0.4817 -0.4270 -0.7852 
0.5598 -0.5282 0.2405 0.1342 0.0777 0.7088 -0.4808 -0.4273 -0.7842 
0.5591 -0.5282 0.2417 0.1348 0.0786 0.7092 -0.4800 -0.4277 -0.7832 
0.5584 -0.5283 0.2429 0.1354 0.0796 0.7096 -0.4791 -0.4280 -0.7821 
0.5577 -0.5283 0.2442 0.1361 0.0806 0.7100 -0.4781 -0.4283 -0.7810 
0.5570 -0.5283 0.2455 0.1368 0.0816 0.7105 -0.4772 -0.4287 -0.7798 
0.5558 -0.5283 0.2479 0.1381 0.0835 0.7113 -0.4754 -0.4293 -0.7776 
0.5551 -0.5283 0.2495 0.1390 0.0848 0.7119 -0.4741 -0.4297 -0.7761 
0.5539 -0.5283 0.2521 0.1405 0.0870 0.7129 -0.4722 -0.4303 -0.7736 
0.5533 -0.5282 0.2538 0.1415 0.0884 0.7136 -0.4708 -0.4307 -0.7720 
0.5527 -0.5282 0.2553 0.1424 0.0897 0.7142 -0.4697 -0.4310 -0.7705 
0.5522 -0.5281 0.2568 0.1433 0.0910 0.7148 -0.4685 -0.4313 -0.7690 
0.5517 -0.5280 0.2583 0.1443 0.0923 0.7154 -0.4673 -0.4316 -0.7676 
0.5512 -0.5280 0.2598 0.1452 0.0936 0.7161 -0.4662 -0.4319 -0.7661 
0.5508 -0.5279 0.2612 0.1461 0.0949 0.7167 -0.4650 -0.4321 -0.7647 
0.5498 -0.5277 0.2649 0.1484 0.0981 0.7183 -0.4622 -0.4328 -0.7610 
0.5493 -0.5275 0.2666 0.1496 0.0998 0.7191 -0.4607 -0.4331 -0.7592 
0.5491 -0.5274 0.2680 0.1505 0.1010 0.7197 -0.4597 -0.4333 -0.7578 
0.5488 -0.5273 0.2692 0.1513 0.1021 0.7203 -0.4587 -0.4334 -0.7566 
0.5486 -0.5272 0.2703 0.1521 0.1032 0.7208 -0.4578 -0.4336 -0.7554 
0.5484 -0.5271 0.2713 0.1528 0.1041 0.7213 -0.4570 -0.4337 -0.7544 
0.5481 -0.5270 0.2729 0.1538 0.1056 0.7220 -0.4558 -0.4339 -0.7528 
0.5480 -0.5269 0.2737 0.1544 0.1064 0.7224 -0.4551 -0.4340 -0.7519 
0.5479 -0.5268 0.2743 0.1548 0.1069 0.7227 -0.4546 -0.4341 -0.7513 
0.5478 -0.5268 0.2749 0.1552 0.1075 0.7230 -0.4541 -0.4342 -0.7506 
0.5478 -0.5268 0.2750 0.1553 0.1077 0.7231 -0.4540 -0.4342 -0.7504 
0.5478 -0.5268 0.2750 0.1553 0.1077 0.7230 -0.4540 -0.4342 -0.7505 
0.5478 -0.5268 0.2748 0.1552 0.1074 0.7229 -0.4542 -0.4342 -0.7507 
0.5479 -0.5268 0.2744 0.1549 0.1070 0.7227 -0.4545 -0.4341 -0.7512 
0.5481 -0.5270 0.2732 0.1540 0.1058 0.7222 -0.4555 -0.4340 -0.7525 
0.5482 -0.5271 0.2721 0.1533 0.1047 0.7217 -0.4563 -0.4338 -0.7536 
0.5484 -0.5272 0.2710 0.1524 0.1035 0.7211 -0.4573 -0.4337 -0.7549 
0.5487 -0.5273 0.2697 0.1515 0.1021 0.7205 -0.4583 -0.4335 -0.7563 
0.5489 -0.5275 0.2682 0.1505 0.1006 0.7198 -0.4595 -0.4333 -0.7579 
0.5496 -0.5277 0.2652 0.1483 0.0973 0.7184 -0.4620 -0.4328 -0.7613 
0.5501 -0.5279 0.2629 0.1467 0.0949 0.7174 -0.4638 -0.4324 -0.7638 
0.5507 -0.5280 0.2607 0.1452 0.0925 0.7165 -0.4655 -0.4320 -0.7662 
0.5518 -0.5283 0.2567 0.1425 0.0882 0.7149 -0.4687 -0.4311 -0.7706 
0.5528 -0.5284 0.2538 0.1406 0.0850 0.7138 -0.4710 -0.4305 -0.7738 
0.5537 -0.5285 0.2512 0.1388 0.0821 0.7128 -0.4730 -0.4298 -0.7767 
0.5548 -0.5285 0.2486 0.1371 0.0792 0.7119 -0.4751 -0.4291 -0.7796 
0.5560 -0.5285 0.2460 0.1354 0.0763 0.7110 -0.4772 -0.4283 -0.7825 
0.5583 -0.5284 0.2415 0.1325 0.0712 0.7097 -0.4807 -0.4268 -0.7876 
0.5601 -0.5283 0.2384 0.1306 0.0676 0.7088 -0.4832 -0.4256 -0.7912 
0.5619 -0.5281 0.2357 0.1290 0.0645 0.7082 -0.4853 -0.4244 -0.7943 
0.5651 -0.5276 0.2314 0.1265 0.0595 0.7074 -0.4887 -0.4223 -0.7993 
0.5676 -0.5272 0.2285 0.1249 0.0561 0.7070 -0.4910 -0.4207 -0.8027 
0.5714 -0.5264 0.2246 0.1228 0.0515 0.7068 -0.4940 -0.4183 -0.8074 
0.5743 -0.5257 0.2220 0.1216 0.0484 0.7068 -0.4960 -0.4164 -0.8106 
0.5769 -0.5251 0.2200 0.1206 0.0459 0.7070 -0.4977 -0.4148 -0.8132 
0.5795 -0.5244 0.2182 0.1199 0.0437 0.7072 -0.4991 -0.4131 -0.8155 
0.5821 -0.5237 0.2165 0.1192 0.0416 0.7076 -0.5004 -0.4115 -0.8176 
0.5862 -0.5225 0.2141 0.1184 0.0386 0.7083 -0.5023 -0.4089 -0.8209 
0.5892 -0.5216 0.2126 0.1180 0.0366 0.7090 -0.5035 -0.4069 -0.8230 
0.5918 -0.5208 0.2114 0.1177 0.0351 0.7096 -0.5045 -0.4052 -0.8247 
0.5942 -0.5200 0.2104 0.1175 0.0338 0.7102 -0.5053 -0.4037 -0.8262 
0.5965 -0.5193 0.2096 0.1174 0.0326 0.7108 -0.5060 -0.4023 -0.8275 
0.5997 -0.5182 0.2085 0.1173 0.0310 0.7118 -0.5069 -0.4002 -0.8293 
0.6019 -0.5174 0.2078 0.1173 0.0301 0.7125 -0.5075 -0.3987 -0.8304 
0.6036 -0.5169 0.2073 0.1173 0.0294 0.7130 -0.5079 -0.3977 -0.8313 
0.6049 -0.5164 0.2070 0.1173 0.0288 0.7135 -0.5082 -0.3968 -0.8319 
0.6065 -0.5158 0.2066 0.1174 0.0282 0.7140 -0.5086 -0.3958 -0.8326 
0.6073 -0.5155 0.2064 0.1174 0.0279 0.7143 -0.5088 -0.3952 -0.8330 
0.6077 -0.5154 0.2063 0.1174 0.0278 0.7144 -0.5088 -0.3950 -0.8331 
0.6076 -0.5154 0.2063 0.1174 0.0278 0.7144 -0.5088 -0.3950 -0.8331 
0.6072 -0.5156 0.2064 0.1174 0.0279 0.7143 -0.5087 -0.3953 -0.8329 
0.6065 -0.5158 0.2065 0.1174 0.0282 0.7140 -0.5086 -0.3957 -0.8326 
0.6056 -0.5161 0.2068 0.1173 0.0285 0.7137 -0.5084 -0.3963 -0.8323 
0.6045 -0.5166 0.2070 0.1173 0.0289 0.7134 -0.5082 -0.3971 -0.8318 
0.6020 -0.5174 0.2077 0.1172 0.0299 0.7126 -0.5076 -0.3987 -0.8308 
0.6000 -0.5181 0.2082 0.1172 0.0307 0.7120 -0.5072 -0.4000 -0.8300 
0.5981 -0.5188 0.2088 0.1172 0.0315 0.7114 -0.5067 -0.4013 -0.8291 
0.5960 -0.5195 0.2095 0.1172 0.0325 0.7108 -0.5062 -0.4027 -0.8282 
0.5924 -0.5208 0.2107 0.1173 0.0342 0.7099 -0.5052 -0.4050 -0.8266 
0.5897 -0.5217 0.2118 0.1175 0.0356 0.7093 -0.5043 -0.4068 -0.8254 
0.5872 -0.5224 0.2129 0.1177 0.0369 0.7088 -0.5035 -0.4085 -0.8242 
0.5832 -0.5237 0.2148 0.1181 0.0392 0.7080 -0.5022 -0.4110 -0.8223 
0.5804 -0.5245 0.2163 0.1186 0.0410 0.7076 -0.5011 -0.4129 -0.8208 
0.5779 -0.5252 0.2178 0.1191 0.0427 0.7074 -0.5000 -0.4145 -0.8195 
0.5756 -0.5258 0.2193 0.1196 0.0444 0.7072 -0.4990 -0.4159 -0.8182 
0.5734 -0.5263 0.2208 0.1202 0.0461 0.7071 -0.4979 -0.4173 -0.8170 
0.5699 -0.5271 0.2235 0.1212 0.0490 0.7070 -0.4962 -0.4195 -0.8149 
0.5675 -0.5276 0.2256 0.1221 0.0512 0.7071 -0.4948 -0.4210 -0.8134 
0.5655 -0.5280 0.2275 0.1230 0.0532 0.7073 -0.4935 -0.4222 -0.8121 
0.5626 -0.5285 0.2304 0.1244 0.0562 0.7077 -0.4916 -0.4239 -0.8102 
0.5607 -0.5287 0.2326 0.1255 0.0585 0.7081 -0.4902 -0.4250 -0.8088 
0.5592 -0.5288 0.2346 0.1265 0.0604 0.7085 -0.4890 -0.4259 -0.8076 
0.5578 -0.5289 0.2364 0.1274 0.0622 0.7090 -0.4878 -0.4267 -0.8066 
0.5566 -0.5290 0.2382 0.1283 0.0639 0.7094 -0.4867 -0.4273 -0.8056 
0.5555 -0.5290 0.2399 0.1292 0.0655 0.7099 -0.4857 -0.4279 -0.8047 
0.5539 -0.5290 0.2425 0.1306 0.0680 0.7106 -0.4841 -0.4288 -0.8033 
0.5529 -0.5289 0.2444 0.1317 0.0697 0.7112 -0.4829 -0.4293 -0.8024 
0.5521 -0.5288 0.2460 0.1325 0.0711 0.7117 -0.4820 -0.4297 -0.8016 
0.5511 -0.5287 0.2481 0.1337 0.0731 0.7123 -0.4807 -0.4302 -0.8006 
0.5504 -0.5286 0.2495 0.1345 0.0743 0.7128 -0.4799 -0.4305 -0.8000 
0.5500 -0.5285 0.2506 0.1352 0.0753 0.7132 -0.4792 -0.4307 -0.7995 
0.5496 -0.5284 0.2516 0.1357 0.0762 0.7135 -0.4787 -0.4309 -0.7991 
0.5493 -0.5283 0.2523 0.1362 0.0769 0.7138 -0.4782 -0.4310 -0.7987 
0.5489 -0.5282 0.2534 0.1368 0.0778 0.7142 -0.4776 -0.4312 -0.7983 
0.5486 -0.5281 0.2540 0.1371 0.0783 0.7144 -0.4773 -0.4313 -0.7981 
0.5484 -0.5280 0.2545 0.1374 0.0788 0.7146 -0.4769 -0.4313 -0.7978 
0.5483 -0.5280 0.2548 0.1376 0.0790 0.7147 -0.4768 -0.4314 -0.7978 
0.5483 -0.5280 0.2548 0.1376 0.0790 0.7147 -0.4768 -0.4314 -0.7977 
0.5483 -0.5280 0.2548 0.1376 0.0790 0.7147 -0.4768 -0.4314 -0.7977 
0.5484 -0.5280 0.2546 0.1374 0.0788 0.7146 -0.4769 -0.4313 -0.7978 
0.5485 -0.5281 0.2543 0.1373 0.0786 0.7145 -0.4771 -0.4313 -0.7979 
0.5486 -0.5281 0.2540 0.1371 0.0783 0.7144 -0.4773 -0.4313 -0.7980 
0.5488 -0.5282 0.2536 0.1369 0.0780 0.7143 -0.4775 -0.4312 -0.7982 
0.5491 -0.5283 0.2528 0.1364 0.0773 0.7140 -0.4779 -0.4311 -0.7984 
0.5493 -0.5283 0.2522 0.1361 0.0768 0.7138 -0.4783 -0.4310 -0.7986 
0.5495 -0.5284 0.2516 0.1357 0.0764 0.7136 -0.4786 -0.4309 -0.7988 
0.5498 -0.5284 0.2511 0.1354 0.0759 0.7135 -0.4789 -0.4308 -0.7990 
0.5500 -0.5285 0.2505 0.1351 0.0754 0.7133 -0.4792 -0.4307 -0.7992 
0.5505 -0.5286 0.2494 0.1345 0.0746 0.7130 -0.4798 -0.4305 -0.7995 
0.5508 -0.5287 0.2487 0.1340 0.0739 0.7128 -0.4803 -0.4303 -0.7997 
0.5511 -0.5287 0.2480 0.1336 0.0734 0.7126 -0.4806 -0.4302 -0.7999 
0.5514 -0.5288 0.2474 0.1333 0.0729 0.7124 -0.4810 -0.4301 -0.8001 
0.5517 -0.5288 0.2467 0.1329 0.0724 0.7122 -0.4813 -0.4299 -0.8003 
0.5522 -0.5289 0.2457 0.1323 0.0716 0.7120 -0.4819 -0.4297 -0.8006 
0.5526 -0.5290 0.2450 0.1319 0.0710 0.7118 -0.4823 -0.4295 -0.8008 
0.5529 -0.5290 0.2444 0.1316 0.0705 0.7116 -0.4827 -0.4293 -0.8010 
0.5534 -0.5290 0.2434 0.1310 0.0698 0.7114 -0.4832 -0.4291 -0.8013 
0.5538 -0.5291 0.2428 0.1307 0.0693 0.7113 -0.4836 -0.4289 -0.8014 
0.5541 -0.5291 0.2422 0.1304 0.0688 0.7111 -0.4839 -0.4287 -0.8016 
0.5544 -0.5291 0.2417 0.1301 0.0685 0.7110 -0.4841 -0.4286 -0.8017 
0.5549 -0.5291 0.2409 0.1297 0.0679 0.7109 -0.4846 -0.4283 -0.8019 
0.5552 -0.5291 0.2404 0.1294 0.0675 0.7108 -0.4848 -0.4281 -0.8021 
0.5554 -0.5291 0.2400 0.1292 0.0671 0.7107 -0.4851 -0.4280 -0.8022 
0.5557 -0.5291 0.2396 0.1290 0.0669 0.7106 -0.4853 -0.4279 -0.8023 
0.5561 -0.5291 0.2390 0.1286 0.0664 0.7105 -0.4856 -0.4276 -0.8024 
0.5563 -0.5291 0.2386 0.1284 0.0661 0.7104 -0.4858 -0.4275 -0.8025 
0.5566 -0.5291 0.2383 0.1283 0.0659 0.7104 -0.4860 -0.4274 -0.8026 
0.5567 -0.5291 0.2380 0.1281 0.0657 0.7103 -0.4861 -0.4273 -0.8026 
0.5569 -0.5291 0.2378 0.1280 0.0655 0.7103 -0.4863 -0.4272 -0.8027 
0.5572 -0.5290 0.2374 0.1278 0.0652 0.7102 -0.4865 -0.4270 -0.8028 
0.5574 -0.5290 0.2371 0.1276 0.0651 0.7102 -0.4866 -0.4269 -0.8028 
0.5575 -0.5290 0.2369 0.1275 0.0649 0.7102 -0.4867 -0.4268 -0.8029 
0.5577 -0.5290 0.2366 0.1274 0.0647 0.7101 -0.4869 -0.4267 -0.8029 
0.5579 -0.5290 0.2364 0.1273 0.0646 0.7101 -0.4870 -0.4266 -0.8030 
0.5580 -0.5290 0.2363 0.1272 0.0645 0.7101 -0.4870 -0.4266 -0.8030 
0.5580 -0.5290 0.2362 0.1271 0.0644 0.7101 -0.4871 -0.4265 -0.8030 
0.5581 -0.5290 0.2361 0.1271 0.0644 0.7101 -0.4872 -0.4265 -0.8030 
0.5582 -0.5290 0.2359 0.1270 0.0643 0.7100 -0.4872 -0.4264 -0.8031 
0.5583 -0.5290 0.2358 0.1270 0.0642 0.7100 -0.4873 -0.4264 -0.8031 
0.5584 -0.5290 0.2358 0.1269 0.0642 0.7100 -0.4873 -0.4264 -0.8031 
0.5584 -0.5289 0.2357 0.1269 0.0641 0.7100 -0.4874 -0.4263 -0.8031 
0.5585 -0.5289 0.2356 0.1268 0.0641 0.7100 -0.4874 -0.4263 -0.8031 
0.5585 -0.5289 0.2356 0.1268 0.0640 0.7100 -0.4874 -0.4263 -0.8031 
0.5585 -0.5289 0.2355 0.1268 0.0640 0.7100 -0.4874 -0.4263 -0.8031 
0.5585 -0.5289 0.2355 0.1268 0.0640 0.7100 -0.4874 -0.4263 -0.8031 
0.5586 -0.5289 0.2355 0.1268 0.0640 0.7100 -0.4875 -0.4263 -0.8031 
0.5586 -0.5289 0.2355 0.1268 0.0640 0.7100 -0.4875 -0.4262 -0.8031 
0.5586 -0.5289 0.2355 0.1268 0.0640 0.7100 -0.4875 -0.4262 -0.8031 
0.5586 -0.5289 0.2355 0.1268 0.0640 0.7100 -0.4875 -0.4262 -0.8031 
0.5586 -0.5289 0.2355 0.1268 0.0640 0.7100 -0.4875 -0.4263 -0.8031 
0.5585 -0.5289 0.2355 0.1268 0.0640 0.7100 -0.4874 -0.4263 -0.8031 
0.5685 -0.5282 0.2204 0.1206 0.0570 0.7063 -0.4979 -0.4223 -0.8105 
0.5693 -0.5281 0.2196 0.1204 0.0566 0.7062 -0.4984 -0.4220 -0.8109 
0.5694 -0.5281 0.2196 0.1204 0.0566 0.7061 -0.4984 -0.4220 -0.8109 
0.5693 -0.5281 0.2197 0.1204 0.0566 0.7062 -0.4983 -0.4220 -0.8109 
0.5691 -0.5281 0.2198 0.1204 0.0567 0.7062 -0.4982 -0.4221 -0.8108 
0.5690 -0.5281 0.2199 0.1204 0.0567 0.7062 -0.4982 -0.4221 -0.8108 
0.5690 -0.5282 0.2200 0.1204 0.0568 0.7062 -0.4982 -0.4222 -0.8107 
0.5689 -0.5282 0.2200 0.1205 0.0568 0.7062 -0.4981 -0.4222 -0.8107 
0.5688 -0.5282 0.2201 0.1205 0.0568 0.7062 -0.4980 -0.4222 -0.8106 
0.5687 -0.5282 0.2202 0.1205 0.0569 0.7063 -0.4980 -0.4223 -0.8106 
0.5684 -0.5282 0.2204 0.1206 0.0570 0.7063 -0.4979 -0.4224 -0.8105 
0.5683 -0.5282 0.2206 0.1206 0.0571 0.7063 -0.4978 -0.4224 -0.8104 
0.5680 -0.5283 0.2208 0.1207 0.0572 0.7064 -0.4976 -0.4225 -0.8103 
0.5678 -0.5283 0.2210 0.1207 0.0573 0.7064 -0.4975 -0.4226 -0.8102 
0.5676 -0.5283 0.2212 0.1208 0.0574 0.7064 -0.4974 -0.4227 -0.8101 
0.5675 -0.5284 0.2214 0.1208 0.0575 0.7065 -0.4973 -0.4228 -0.8100 
0.5673 -0.5284 0.2216 0.1209 0.0576 0.7065 -0.4972 -0.4228 -0.8098 
0.5670 -0.5284 0.2218 0.1209 0.0577 0.7066 -0.4971 -0.4229 -0.8097 
0.5668 -0.5284 0.2220 0.1210 0.0578 0.7066 -0.4969 -0.4230 -0.8096 
0.5663 -0.5285 0.2225 0.1211 0.0581 0.7067 -0.4966 -0.4232 -0.8093 
0.5660 -0.5285 0.2228 0.1212 0.0583 0.7068 -0.4964 -0.4234 -0.8091 
0.5657 -0.5286 0.2231 0.1213 0.0584 0.7069 -0.4962 -0.4235 -0.8089 
0.5654 -0.5286 0.2234 0.1214 0.0586 0.7069 -0.4960 -0.4236 -0.8087 
0.5647 -0.5287 0.2241 0.1216 0.0590 0.7071 -0.4956 -0.4239 -0.8082 
0.5643 -0.5288 0.2246 0.1218 0.0593 0.7072 -0.4953 -0.4241 -0.8079 
0.5639 -0.5288 0.2250 0.1219 0.0596 0.7073 -0.4950 -0.4243 -0.8076 
0.5631 -0.5289 0.2259 0.1222 0.0601 0.7075 -0.4944 -0.4246 -0.8070 
0.5625 -0.5290 0.2265 0.1224 0.0605 0.7077 -0.4941 -0.4248 -0.8066 
0.5620 -0.5290 0.2271 0.1227 0.0608 0.7078 -0.4937 -0.4250 -0.8061 
0.5615 -0.5291 0.2277 0.1229 0.0612 0.7080 -0.4933 -0.4253 -0.8057 
0.5610 -0.5291 0.2283 0.1231 0.0617 0.7081 -0.4929 -0.4255 -0.8052 
0.5600 -0.5292 0.2296 0.1236 0.0625 0.7085 -0.4920 -0.4260 -0.8043 
0.5593 -0.5293 0.2304 0.1240 0.0631 0.7087 -0.4914 -0.4263 -0.8036 
0.5587 -0.5294 0.2313 0.1243 0.0636 0.7090 -0.4909 -0.4265 -0.8030 
0.5581 -0.5294 0.2321 0.1247 0.0642 0.7092 -0.4903 -0.4268 -0.8023 
0.5569 -0.5295 0.2338 0.1254 0.0654 0.7097 -0.4892 -0.4274 -0.8010 
0.5556 -0.5296 0.2357 0.1263 0.0668 0.7104 -0.4878 -0.4280 -0.7993 
0.5548 -0.5296 0.2369 0.1269 0.0677 0.7108 -0.4869 -0.4283 -0.7983 
0.5541 -0.5296 0.2381 0.1274 0.0686 0.7112 -0.4861 -0.4287 -0.7973 
0.5535 -0.5297 0.2392 0.1280 0.0695 0.7116 -0.4853 -0.4290 -0.7963 
0.5528 -0.5297 0.2404 0.1286 0.0704 0.7120 -0.4844 -0.4293 -0.7953 
0.5522 -0.5297 0.2417 0.1293 0.0713 0.7125 -0.4835 -0.4296 -0.7942 
0.5515 -0.5297 0.2430 0.1300 0.0723 0.7130 -0.4826 -0.4299 -0.7930 
0.5504 -0.5297 0.2454 0.1313 0.0743 0.7139 -0.4808 -0.4305 -0.7909 
0.5497 -0.5296 0.2469 0.1321 0.0755 0.7145 -0.4796 -0.4309 -0.7894 
0.5486 -0.5296 0.2495 0.1336 0.0777 0.7156 -0.4777 -0.4315 -0.7870 
0.5480 -0.5295 0.2512 0.1346 0.0791 0.7163 -0.4764 -0.4318 -0.7854 
0.5474 -0.5294 0.2527 0.1355 0.0804 0.7169 -0.4753 -0.4321 -0.7840 
0.5469 -0.5293 0.2542 0.1364 0.0816 0.7176 -0.4742 -0.4324 -0.7825 
0.5465 -0.5293 0.2557 0.1373 0.0829 0.7183 -0.4730 -0.4327 -0.7811 
0.5460 -0.5292 0.2572 0.1382 0.0841 0.7189 -0.4719 -0.4329 -0.7797 
0.5456 -0.5291 0.2586 0.1391 0.0854 0.7196 -0.4708 -0.4332 -0.7783 
0.5447 -0.5288 0.2622 0.1414 0.0886 0.7212 -0.4680 -0.4337 -0.7747 
0.5443 -0.5287 0.2640 0.1425 0.0902 0.7221 -0.4666 -0.4340 -0.7729 
0.5440 -0.5285 0.2653 0.1434 0.0914 0.7227 -0.4656 -0.4342 -0.7716 
0.5438 -0.5284 0.2665 0.1442 0.0925 0.7233 -0.4646 -0.4343 -0.7704 
0.5436 -0.5283 0.2676 0.1450 0.0936 0.7239 -0.4638 -0.4345 -0.7693 
0.5435 -0.5282 0.2686 0.1456 0.0945 0.7244 -0.4630 -0.4346 -0.7682 
0.5432 -0.5280 0.2701 0.1467 0.0959 0.7251 -0.4618 -0.4348 -0.7667 
0.5431 -0.5280 0.2709 0.1472 0.0967 0.7256 -0.4611 -0.4349 -0.7658 
0.5430 -0.5279 0.2715 0.1476 0.0973 0.7259 -0.4607 -0.4350 -0.7652 
0.5429 -0.5278 0.2721 0.1480 0.0978 0.7262 -0.4602 -0.4350 -0.7646 
0.5429 -0.5278 0.2723 0.1482 0.0980 0.7262 -0.4601 -0.4350 -0.7644 
0.5429 -0.5278 0.2722 0.1481 0.0980 0.7262 -0.4601 -0.4350 -0.7645 
0.5430 -0.5278 0.2720 0.1480 0.0977 0.7261 -0.4603 -0.4350 -0.7647 
0.5430 -0.5279 0.2716 0.1477 0.0973 0.7259 -0.4606 -0.4350 -0.7651 
0.5432 -0.5280 0.2704 0.1468 0.0961 0.7253 -0.4616 -0.4348 -0.7664 
0.5433 -0.5281 0.2693 0.1461 0.0950 0.7247 -0.4624 -0.4347 -0.7676 
0.5435 -0.5283 0.2682 0.1453 0.0938 0.7242 -0.4633 -0.4346 -0.7688 
0.5437 -0.5284 0.2669 0.1443 0.0925 0.7235 -0.4643 -0.4344 -0.7702 
0.5440 -0.5286 0.2654 0.1433 0.0909 0.7228 -0.4655 -0.4342 -0.7718 
0.5445 -0.5289 0.2623 0.1412 0.0877 0.7214 -0.4679 -0.4338 -0.7751 
0.5450 -0.5291 0.2601 0.1396 0.0853 0.7203 -0.4697 -0.4334 -0.7775 
0.5456 -0.5292 0.2579 0.1381 0.0830 0.7193 -0.4714 -0.4330 -0.7799 
0.5466 -0.5295 0.2539 0.1354 0.0787 0.7176 -0.4745 -0.4322 -0.7842 
0.5475 -0.5297 0.2510 0.1335 0.0756 0.7164 -0.4767 -0.4316 -0.7873 
0.5485 -0.5298 0.2484 0.1317 0.0727 0.7154 -0.4788 -0.4310 -0.7902 
0.5495 -0.5299 0.2458 0.1301 0.0699 0.7144 -0.4808 -0.4303 -0.7930 
0.5507 -0.5299 0.2432 0.1284 0.0670 0.7135 -0.4828 -0.4296 -0.7959 
0.5528 -0.5299 0.2387 0.1256 0.0620 0.7120 -0.4862 -0.4281 -0.8008 
0.5547 -0.5297 0.2356 0.1236 0.0585 0.7111 -0.4886 -0.4270 -0.8043 
0.5564 -0.5296 0.2329 0.1220 0.0554 0.7104 -0.4907 -0.4259 -0.8074 
0.5595 -0.5292 0.2286 0.1196 0.0505 0.7094 -0.4940 -0.4239 -0.8123 
0.5619 -0.5288 0.2257 0.1180 0.0472 0.7090 -0.4962 -0.4224 -0.8156 
0.5657 -0.5281 0.2218 0.1160 0.0426 0.7086 -0.4992 -0.4200 -0.8202 
0.5686 -0.5274 0.2192 0.1148 0.0396 0.7085 -0.5011 -0.4182 -0.8232 
0.5712 -0.5268 0.2172 0.1139 0.0372 0.7086 -0.5027 -0.4166 -0.8258 
0.5737 -0.5262 0.2154 0.1131 0.0350 0.7088 -0.5041 -0.4150 -0.8280 
0.5762 -0.5255 0.2138 0.1125 0.0331 0.7091 -0.5053 -0.4134 -0.8301 
0.5803 -0.5244 0.2114 0.1117 0.0301 0.7098 -0.5071 -0.4108 -0.8332 
0.5833 -0.5235 0.2099 0.1113 0.0282 0.7103 -0.5083 -0.4089 -0.8353 
0.5859 -0.5227 0.2087 0.1111 0.0267 0.7109 -0.5092 -0.4073 -0.8370 
0.5883 -0.5219 0.2077 0.1109 0.0254 0.7115 -0.5100 -0.4057 -0.8384 
0.5905 -0.5212 0.2069 0.1108 0.0243 0.7121 -0.5107 -0.4043 -0.8397 
0.5938 -0.5202 0.2058 0.1107 0.0228 0.7130 -0.5116 -0.4023 -0.8414 
0.5960 -0.5194 0.2051 0.1108 0.0219 0.7137 -0.5121 -0.4009 -0.8425 
0.5977 -0.5188 0.2046 0.1108 0.0212 0.7142 -0.5125 -0.3998 -0.8433 
0.5990 -0.5184 0.2042 0.1108 0.0207 0.7146 -0.5128 -0.3989 -0.8439 
0.6006 -0.5178 0.2038 0.1109 0.0201 0.7152 -0.5131 -0.3979 -0.8446 
0.6014 -0.5175 0.2036 0.1110 0.0198 0.7154 -0.5133 -0.3973 -0.8450 
0.6018 -0.5174 0.2036 0.1110 0.0197 0.7156 -0.5133 -0.3971 -0.8452 
0.6018 -0.5174 0.2036 0.1110 0.0197 0.7156 -0.5133 -0.3971 -0.8451 
0.6014 -0.5175 0.2037 0.1110 0.0198 0.7154 -0.5133 -0.3974 -0.8450 
0.6007 -0.5178 0.2038 0.1109 0.0200 0.7152 -0.5131 -0.3978 -0.8447 
0.5998 -0.5181 0.2040 0.1109 0.0203 0.7149 -0.5130 -0.3984 -0.8444 
0.5987 -0.5185 0.2043 0.1108 0.0207 0.7146 -0.5127 -0.3991 -0.8439 
0.5963 -0.5193 0.2049 0.1107 0.0216 0.7138 -0.5123 -0.4007 -0.8430 
0.5943 -0.5200 0.2054 0.1106 0.0224 0.7132 -0.5118 -0.4020 -0.8422 
0.5924 -0.5207 0.2060 0.1106 0.0232 0.7127 -0.5114 -0.4032 -0.8414 
0.5903 -0.5214 0.2067 0.1106 0.0240 0.7122 -0.5109 -0.4045 -0.8405 
0.5868 -0.5226 0.2079 0.1107 0.0256 0.7113 -0.5100 -0.4069 -0.8390 
0.5840 -0.5234 0.2089 0.1108 0.0270 0.7107 -0.5092 -0.4086 -0.8378 
0.5815 -0.5242 0.2100 0.1110 0.0283 0.7102 -0.5084 -0.4102 -0.8367 
0.5776 -0.5254 0.2118 0.1114 0.0305 0.7095 -0.5072 -0.4127 -0.8348 
0.5747 -0.5262 0.2134 0.1118 0.0322 0.7091 -0.5061 -0.4145 -0.8334 
0.5722 -0.5269 0.2148 0.1122 0.0339 0.7089 -0.5051 -0.4161 -0.8321 
0.5699 -0.5274 0.2163 0.1127 0.0355 0.7088 -0.5041 -0.4175 -0.8309 
0.5677 -0.5280 0.2178 0.1133 0.0371 0.7087 -0.5031 -0.4189 -0.8297 
0.5642 -0.5287 0.2205 0.1143 0.0399 0.7087 -0.5014 -0.4210 -0.8277 
0.5618 -0.5292 0.2225 0.1151 0.0420 0.7088 -0.5001 -0.4224 -0.8263 
0.5598 -0.5296 0.2244 0.1160 0.0440 0.7091 -0.4989 -0.4236 -0.8250 
0.5569 -0.5300 0.2274 0.1173 0.0469 0.7095 -0.4971 -0.4253 -0.8232 
0.5550 -0.5302 0.2296 0.1183 0.0491 0.7100 -0.4957 -0.4264 -0.8218 
0.5534 -0.5303 0.2316 0.1193 0.0509 0.7104 -0.4945 -0.4272 -0.8207 
0.5521 -0.5304 0.2334 0.1202 0.0527 0.7109 -0.4934 -0.4280 -0.8197 
0.5508 -0.5305 0.2352 0.1211 0.0543 0.7114 -0.4923 -0.4286 -0.8187 
0.5497 -0.5305 0.2369 0.1220 0.0559 0.7118 -0.4913 -0.4292 -0.8178 
0.5481 -0.5304 0.2395 0.1234 0.0583 0.7126 -0.4898 -0.4300 -0.8165 
0.5471 -0.5303 0.2414 0.1244 0.0600 0.7132 -0.4887 -0.4305 -0.8156 
0.5463 -0.5302 0.2429 0.1252 0.0614 0.7138 -0.4877 -0.4309 -0.8148 
0.5453 -0.5301 0.2451 0.1264 0.0633 0.7145 -0.4865 -0.4314 -0.8139 
0.5446 -0.5300 0.2465 0.1272 0.0646 0.7150 -0.4857 -0.4316 -0.8133 
0.5441 -0.5298 0.2476 0.1278 0.0656 0.7154 -0.4850 -0.4318 -0.8128 
0.5438 -0.5297 0.2486 0.1283 0.0664 0.7158 -0.4845 -0.4320 -0.8124 
0.5434 -0.5297 0.2494 0.1288 0.0671 0.7161 -0.4840 -0.4321 -0.8120 
0.5430 -0.5295 0.2504 0.1294 0.0680 0.7164 -0.4834 -0.4323 -0.8116 
0.5428 -0.5295 0.2510 0.1297 0.0685 0.7167 -0.4831 -0.4324 -0.8114 
0.5426 -0.5294 0.2515 0.1300 0.0689 0.7169 -0.4828 -0.4324 -0.8112 
0.5425 -0.5293 0.2518 0.1302 0.0691 0.7170 -0.4827 -0.4325 -0.8111 
0.5425 -0.5293 0.2519 0.1302 0.0692 0.7170 -0.4826 -0.4325 -0.8111 
0.5425 -0.5293 0.2519 0.1302 0.0692 0.7170 -0.4826 -0.4325 -0.8111 
0.5426 -0.5294 0.2516 0.1300 0.0690 0.7169 -0.4828 -0.4324 -0.8112 
0.5427 -0.5294 0.2513 0.1299 0.0687 0.7168 -0.4829 -0.4324 -0.8113 
0.5428 -0.5295 0.2510 0.1297 0.0685 0.7167 -0.4831 -0.4324 -0.8114 
0.5430 -0.5295 0.2506 0.1295 0.0682 0.7165 -0.4833 -0.4323 -0.8115 
0.5433 -0.5296 0.2498 0.1290 0.0675 0.7163 -0.4838 -0.4322 -0.8118 
0.5435 -0.5297 0.2492 0.1287 0.0670 0.7160 -0.4841 -0.4321 -0.8120 
0.5437 -0.5298 0.2486 0.1283 0.0666 0.7159 -0.4844 -0.4320 -0.8121 
0.5440 -0.5298 0.2480 0.1280 0.0661 0.7157 -0.4847 -0.4319 -0.8123 
0.5442 -0.5299 0.2474 0.1277 0.0656 0.7155 -0.4851 -0.4318 -0.8125 
0.5447 -0.5300 0.2464 0.1271 0.0648 0.7151 -0.4857 -0.4316 -0.8128 
0.5450 -0.5301 0.2456 0.1267 0.0642 0.7149 -0.4861 -0.4315 -0.8131 
0.5453 -0.5302 0.2449 0.1263 0.0636 0.7147 -0.4864 -0.4314 -0.8133 
0.5456 -0.5302 0.2443 0.1259 0.0631 0.7145 -0.4868 -0.4312 -0.8134 
0.5459 -0.5303 0.2436 0.1256 0.0626 0.7143 -0.4871 -0.4311 -0.8136 
0.5465 -0.5303 0.2426 0.1250 0.0618 0.7140 -0.4877 -0.4308 -0.8139 
0.5469 -0.5304 0.2418 0.1246 0.0612 0.7138 -0.4881 -0.4307 -0.8141 
0.5472 -0.5304 0.2412 0.1242 0.0607 0.7137 -0.4885 -0.4305 -0.8143 
0.5477 -0.5305 0.2402 0.1237 0.0600 0.7134 -0.4890 -0.4302 -0.8146 
0.5481 -0.5305 0.2395 0.1234 0.0595 0.7133 -0.4893 -0.4301 -0.8147 
0.5484 -0.5305 0.2390 0.1231 0.0591 0.7131 -0.4896 -0.4299 -0.8149 
0.5487 -0.5305 0.2385 0.1228 0.0587 0.7130 -0.4899 -0.4297 -0.8150 
0.5492 -0.5306 0.2377 0.1224 0.0581 0.7128 -0.4903 -0.4295 -0.8152 
0.5495 -0.5306 0.2371 0.1221 0.0577 0.7127 -0.4906 -0.4293 -0.8153 
0.5498 -0.5306 0.2367 0.1218 0.0574 0.7126 -0.4908 -0.4292 -0.8154 
0.5501 -0.5306 0.2363 0.1216 0.0571 0.7126 -0.4911 -0.4290 -0.8155 
0.5505 -0.5306 0.2357 0.1213 0.0566 0.7124 -0.4914 -0.4288 -0.8157 
0.5507 -0.5306 0.2353 0.1211 0.0564 0.7124 -0.4916 -0.4287 -0.8158 
0.5510 -0.5306 0.2350 0.1209 0.0561 0.7123 -0.4918 -0.4286 -0.8158 
0.5512 -0.5305 0.2347 0.1208 0.0559 0.7122 -0.4919 -0.4285 -0.8159 
0.5514 -0.5305 0.2344 0.1207 0.0557 0.7122 -0.4920 -0.4284 -0.8160 
0.5516 -0.5305 0.2340 0.1204 0.0555 0.7121 -0.4922 -0.4282 -0.8160 
0.5518 -0.5305 0.2337 0.1203 0.0553 0.7121 -0.4924 -0.4281 -0.8161 
0.5520 -0.5305 0.2335 0.1202 0.0551 0.7121 -0.4925 -0.4280 -0.8161 
0.5522 -0.5305 0.2332 0.1201 0.0549 0.7120 -0.4926 -0.4279 -0.8162 
0.5523 -0.5305 0.2330 0.1200 0.0548 0.7120 -0.4927 -0.4278 -0.8162 
0.5524 -0.5305 0.2329 0.1199 0.0547 0.7120 -0.4928 -0.4278 -0.8163 
0.5525 -0.5305 0.2328 0.1198 0.0546 0.7119 -0.4929 -0.4277 -0.8163 
0.5526 -0.5305 0.2327 0.1198 0.0546 0.7119 -0.4929 -0.4277 -0.8163 
0.5527 -0.5305 0.2325 0.1197 0.0545 0.7119 -0.4930 -0.4276 -0.8163 
0.5528 -0.5305 0.2324 0.1196 0.0544 0.7119 -0.4931 -0.4276 -0.8164 
0.5529 -0.5304 0.2323 0.1196 0.0544 0.7119 -0.4931 -0.4275 -0.8164 
0.5529 -0.5304 0.2323 0.1196 0.0543 0.7119 -0.4931 -0.4275 -0.8164 
0.5530 -0.5304 0.2322 0.1195 0.0543 0.7119 -0.4932 -0.4275 -0.8164 
0.5530 -0.5304 0.2321 0.1195 0.0542 0.7118 -0.4932 -0.4274 -0.8164 
0.5531 -0.5304 0.2321 0.1195 0.0542 0.7118 -0.4932 -0.4274 -0.8164 
0.5531 -0.5304 0.2321 0.1195 0.0542 0.7118 -0.4932 -0.4274 -0.8164 
0.5531 -0.5304 0.2320 0.1195 0.0542 0.7118 -0.4932 -0.4274 -0.8164 
0.5531 -0.5304 0.2320 0.1195 0.0542 0.7118 -0.4932 -0.4274 -0.8164 
0.5531 -0.5304 0.2320 0.1195 0.0542 0.7118 -0.4932 -0.4274 -0.8164 
0.5531 -0.5304 0.2320 0.1195 0.0542 0.7118 -0.4932 -0.4274 -0.8164 
0.5531 -0.5304 0.2320 0.1195 0.0542 0.7118 -0.4932 -0.4274 -0.8164 
0.5531 -0.5304 0.2320 0.1195 0.0542 0.7118 -0.4932 -0.4274 -0.8164 
